SVM-light Version V6.02
2 # kernel type
3 # kernel parameter -d 
0.1 # kernel parameter -g 
1 # kernel parameter -s 
1 # kernel parameter -r 
empty# kernel parameter -u 
51 # highest feature index 
1474 # number of training documents 
801 # number of support vectors plus 1 
0.51392879 # threshold b, each following line is a SV (starting with alpha*y)
-3.3310935039079816455398486141348 14:1 19:-1 27:2 38:1 40:1 42:1 45:1 46:1 51:1 #-1
-1.3170931376323546935225294873817 12:1 20:-1 29:1 32:1 38:1 39:1 43:2 44:1 46:1 48:3 #-1
-0.64419816972386534370542676697369 1:1 13:-1 27:1 29:1 31:2 32:2 34:1 38:1 40:2 48:2 #-1
10 9:-1 22:1 35:1 38:2 43:1 44:2 48:2 #1
-5 11:-1 18:1 27:1 31:1 32:1 39:1 43:1 44:1 48:1 #-1
2.0285272736109312141650207195198 5:1 19:-1 27:2 31:1 37:1 43:1 46:1 #1
8.8366134705686576467087434139103 1:1 22:-1 29:1 30:1 31:1 33:1 35:1 39:1 42:2 #1
3.9031830298983973825954763015034 5:1 11:-1 27:1 29:1 32:1 33:2 35:1 45:1 46:1 #1
3.0417877339063599251289815583732 9:1 17:-1 27:1 30:1 34:1 35:1 38:1 44:1 46:1 49:1 51:2 #1
2.8764182883425890580042505462188 11:-1 18:1 34:1 38:2 42:1 49:1 51:2 #1
-5 9:1 22:-1 29:1 30:1 31:1 33:1 35:1 39:1 42:2 #-1
-0.26594597497383531958803359884769 1:-1 20:1 35:1 37:1 40:1 42:1 44:2 46:1 48:1 49:1 51:1 #-1
-5 5:1 19:-1 27:2 30:1 31:1 37:2 38:1 40:1 #-1
2.8915131798839013299584621563554 5:-1 18:1 32:1 33:1 38:1 39:1 45:1 48:2 #1
-5 9:-1 20:1 35:1 38:2 43:1 44:2 48:2 #-1
-5 7:1 19:-1 27:2 31:1 37:1 43:1 46:1 #-1
-0.7913294274940341210822225548327 7:1 9:-1 35:1 38:2 43:1 44:2 48:2 #-1
-1.0422385203346782311939477949636 8:-1 11:1 37:1 38:1 43:1 46:1 49:1 51:2 #-1
10 1:1 19:-1 27:2 30:1 31:1 37:2 38:1 40:1 #1
-5 1:1 19:-1 27:2 30:1 31:1 37:2 38:1 40:1 #-1
-5 1:1 7:-1 27:2 37:1 38:1 40:1 51:1 #-1
-5 4:1 19:-1 27:2 30:1 31:1 37:2 38:1 40:1 #-1
3.4930506954911448858069888956379 7:1 14:-1 29:1 43:1 44:1 #1
7.7748922249484984092759987106547 11:-1 18:1 31:1 35:2 38:1 43:2 48:1 49:1 #1
10 1:1 11:-1 27:1 31:2 35:1 37:1 38:1 43:1 48:1 #1
-5 11:-1 18:1 31:1 35:2 38:1 43:2 48:1 49:1 #-1
-4.666269440932192757998109300388 1:1 11:-1 27:1 31:2 35:2 37:1 38:1 48:2 #-1
4.8887976527436105556034817709588 11:1 19:-1 27:2 30:1 31:1 37:2 38:1 40:1 #1
-0.15529589661320519766718462051358 1:1 19:-1 29:1 30:2 45:2 48:1 51:1 #-1
-5 3:1 19:-1 27:2 30:1 31:1 37:2 38:1 40:1 #-1
-5 16:1 19:-1 27:2 30:1 31:1 37:2 38:1 40:1 #-1
-5 14:1 19:-1 27:2 30:1 31:1 37:2 38:1 40:1 #-1
10 19:-1 20:1 27:2 29:1 35:3 38:1 40:1 46:1 48:1 #1
7.1020587868859132996135485882405 1:1 7:-1 31:1 32:1 33:1 34:1 35:2 38:1 46:1 51:1 #1
6.4101718406403627170675463275984 1:1 5:-1 27:1 31:1 32:1 34:2 35:3 45:1 #1
-2.6848145585532816603802075405838 8:1 14:-1 29:1 35:1 38:1 40:1 49:1 #-1
-2.4586757705942083873651426983997 1:-1 22:1 33:1 38:1 #-1
-5 1:1 14:-1 33:1 34:1 42:1 45:2 51:1 #-1
0.42307737415524249158238490053918 8:-1 12:1 27:1 33:1 35:1 37:2 38:1 39:1 44:1 46:1 48:1 #1
-0.29951992918850933733665442559868 9:1 22:-1 27:1 31:1 32:1 33:3 38:3 39:2 46:1 48:1 #-1
6.5743294260771074632998534070794 1:1 14:-1 33:1 34:1 42:1 45:2 51:1 #1
7.1256837398719241605249408166856 4:1 20:-1 31:1 35:1 39:1 44:1 48:1 #1
4.8948311979177896446913109684829 7:-1 19:1 27:1 48:1 #1
-5 1:1 20:-1 31:1 35:1 39:1 44:1 48:1 #-1
-5 20:-1 22:1 32:1 33:1 35:1 38:1 42:1 48:2 #-1
-4.6577334351767039066771758371033 19:1 20:-1 32:1 33:1 35:1 38:1 42:1 48:2 #-1
3.3240863336975401409745245473459 8:1 19:-1 27:2 30:1 31:1 37:2 38:1 40:1 #1
10 19:-1 20:1 27:2 30:1 31:1 37:2 38:1 40:1 #1
10 1:1 20:-1 32:1 33:1 35:1 38:1 42:1 48:2 #1
2.8037379793099153069135809346335 11:-1 22:1 33:2 42:1 43:1 45:1 48:1 51:1 #1
-0.939690422662044499979572265147 1:1 16:-1 32:1 33:1 38:1 46:1 48:2 #-1
-3.8884198281257940088551094959257 12:-1 16:1 32:1 34:1 45:2 48:1 #-1
-0.23957077661162301529529372601246 7:1 11:-1 38:2 39:1 43:2 44:1 45:1 49:1 #-1
2.9912313267765564539502065599663 19:-1 22:1 27:2 30:1 31:1 37:2 38:1 40:1 #1
-0.37333718962801570873111245418841 20:1 22:-1 27:1 33:1 34:1 35:1 38:2 46:2 48:1 #-1
0.42038910297213699651663887379982 19:-1 25:1 27:2 30:1 31:1 37:2 38:1 40:1 #1
-5 7:1 19:-1 27:2 30:1 31:1 37:2 38:1 40:1 #-1
10 5:1 20:-1 27:1 32:1 33:1 38:1 40:1 44:1 45:1 #1
-5 5:1 20:-1 27:1 32:1 33:1 38:1 40:1 44:1 45:1 #-1
9.6357461504089254589189295074902 4:1 22:-1 27:3 30:1 31:1 37:1 38:1 40:1 #1
1.7858444385727665348895243369043 6:1 19:-1 27:2 30:1 31:1 37:2 38:1 40:1 #1
2.8485138970502061894762846350204 19:-1 23:1 27:2 30:1 31:1 37:2 38:1 40:1 #1
-4.8981571060884707691229777992703 20:1 22:-1 27:3 30:1 31:1 37:1 38:1 40:1 #-1
6.1197243597507622325792908668518 11:1 18:-1 33:1 38:1 40:1 44:1 45:1 49:2 #1
-2.5118653762042941757215430698125 1:1 14:-1 30:1 32:1 34:1 35:1 40:1 44:2 45:1 51:1 #-1
-5 18:1 20:-1 30:1 34:1 38:1 43:1 51:2 #-1
5.9132737003982516199585006688721 5:1 22:-1 27:3 30:1 31:1 37:1 38:1 40:1 #1
-4.7532604156975111209249007515609 20:1 22:-1 27:3 30:1 31:1 37:1 38:1 40:1 #-1
-5 19:1 22:-1 27:3 30:1 31:1 37:1 38:1 40:1 #-1
-5 7:1 22:-1 27:3 30:1 31:1 37:1 38:1 40:1 #-1
10 18:1 20:-1 30:1 34:1 38:1 43:1 51:2 #1
7.3959126934589640711692482000217 1:1 11:-1 30:1 32:1 40:1 44:1 45:1 #1
-0.29297358621262464817291970575752 7:1 18:-1 30:1 32:1 33:2 38:2 39:1 42:1 43:1 46:3 #-1
-4.2568169154012593935476616024971 1:1 11:-1 27:1 29:1 33:1 42:1 44:1 #-1
3.1739636402073720944372325902805 1:1 22:-1 27:3 30:1 31:1 37:1 38:1 40:1 #1
-5 20:1 22:-1 27:3 30:1 31:1 37:1 38:1 40:1 #-1
6.3352700083578161738273593073245 1:1 4:-1 29:1 31:1 32:1 38:1 42:1 44:1 #1
5.137771283097285923702202126151 16:1 19:-1 31:1 33:1 37:1 38:1 43:1 46:1 48:2 #1
10 1:-1 16:1 37:1 38:1 40:1 42:1 44:1 #1
-5 1:-1 16:1 37:1 38:1 40:1 42:1 44:1 #-1
-0.56130065362203152012909868062707 19:-1 25:1 27:2 29:1 35:3 38:1 40:1 46:1 48:1 #-1
0.50685528445778837980384423644864 13:1 22:-1 27:3 30:1 31:1 37:1 38:1 40:1 #1
-0.0020806054297595188984359992900863 4:-1 14:1 27:2 29:2 32:1 34:1 35:1 37:1 40:1 48:1 #-1
3.7318506135503453080559665977489 9:1 22:-1 27:3 30:1 31:1 37:1 38:1 40:1 #1
3.47052646554920496413387809298 12:1 22:-1 27:2 31:1 35:1 37:2 38:1 39:1 40:1 46:1 48:1 #1
-0.93648140084191455745354915052303 1:1 22:-1 27:4 29:1 30:1 32:1 35:1 37:1 38:2 39:1 #-1
-5 5:1 20:-1 27:1 32:1 33:1 38:1 40:1 44:1 45:1 #-1
-5 1:-1 19:1 37:1 38:1 40:1 42:1 44:1 #-1
-4.5880989955812783165356449899264 1:-1 20:1 37:1 38:1 48:1 #-1
-5 4:1 14:-1 32:1 38:1 39:1 40:1 44:1 45:1 46:1 #-1
1.8960068319654963531206703919452 1:1 7:-1 27:3 29:1 30:1 32:2 35:1 38:1 45:1 46:1 51:1 #1
-0.0046822418656814468462812328652944 1:1 22:-1 27:1 30:1 31:2 35:1 37:2 38:2 43:1 49:1 #-1
-0.0010040974043072914412277896190062 1:1 19:-1 27:2 29:1 35:3 38:1 40:1 46:1 48:1 #-1
-5 4:1 19:-1 27:2 29:1 35:3 38:1 40:1 46:1 48:1 #-1
2.285332255772684284522711095633 4:1 14:-1 32:1 38:1 39:1 40:1 44:1 45:1 46:1 #1
-5 5:1 20:-1 27:1 32:1 33:1 38:1 40:1 44:1 45:1 #-1
6.8339734594022756297704290773254 7:1 11:-1 27:1 30:1 37:2 42:1 46:1 #1
2.166070830355496301677931114682 11:-1 14:1 27:1 30:1 37:2 42:1 46:1 #1
-1.2991059791734178574529323668685 9:-1 13:1 27:1 30:1 37:3 46:2 48:1 #-1
-4.8240410184857189790363918291405 1:1 4:-1 27:1 30:1 37:1 46:3 51:1 #-1
-0.92406145054347943457173641945701 6:1 22:-1 27:1 30:1 32:1 35:1 37:2 38:1 39:1 46:3 #-1
10 1:1 4:-1 27:1 30:1 37:1 46:1 51:1 #1
10 1:1 4:-1 27:1 30:1 33:1 38:1 43:1 44:1 46:1 48:1 51:1 #1
3.4458429403799502033223234320758 4:-1 14:1 31:1 33:1 37:1 38:1 46:2 51:2 #1
-5 1:1 4:-1 27:1 30:1 33:1 38:1 43:1 44:1 46:1 48:1 51:1 #-1
-5 1:1 16:-1 27:1 30:1 31:1 37:1 38:1 43:1 #-1
-3.055770805957423785770288304775 8:-1 18:1 37:1 38:1 43:1 46:1 49:1 51:2 #-1
10 5:1 20:-1 27:1 32:1 33:1 38:1 40:1 44:1 45:1 #1
-1.0681382295231385270994906022679 4:1 14:-1 31:1 32:1 38:1 42:1 43:1 44:1 45:1 46:1 48:1 51:1 #-1
-5 4:1 14:-1 27:1 37:1 42:1 44:2 46:1 #-1
-1.6570959821123025790257088374346 17:1 18:-1 39:2 40:1 42:1 44:1 45:2 #-1
8.7816286457006960119997529545799 4:-1 19:1 27:1 30:1 31:1 38:2 40:1 #1
6.402515609331302925966156180948 4:-1 14:1 27:1 30:1 31:1 38:2 40:1 #1
2.1167024953987021440582338982495 3:1 4:-1 27:1 30:1 31:1 38:2 40:1 #1
-5 4:-1 12:1 27:1 30:1 31:1 38:2 40:1 #-1
-5 4:-1 9:1 27:1 30:1 31:1 38:2 40:1 #-1
-5 4:-1 22:1 27:1 30:1 31:1 38:2 40:1 #-1
-0.0061002455852763315391484866268001 9:-1 22:1 27:2 30:2 33:1 35:1 37:1 38:1 44:1 45:1 46:1 51:1 #-1
-5 4:-1 23:1 27:1 30:1 31:1 38:2 40:1 #-1
-5 4:-1 20:1 27:1 30:1 31:1 38:2 40:1 #-1
-5 4:-1 6:1 27:1 30:1 31:1 38:2 40:1 #-1
7.3300086784957034780063622747548 19:1 20:-1 27:1 32:1 33:1 35:1 37:1 44:2 46:2 48:1 #1
-5 1:1 20:-1 27:1 31:2 37:1 38:1 39:1 #-1
-5 8:1 14:-1 27:1 37:1 42:1 44:2 46:1 #-1
8.7595262756611020904529141262174 4:-1 7:1 27:1 30:1 31:1 38:2 40:1 #1
-3.7629922289437880422724447271321 19:1 20:-1 32:1 33:2 35:1 37:1 39:1 44:2 46:1 48:1 #-1
-2.407273959120868500605183726293 1:-1 20:1 35:1 37:1 40:1 42:1 44:2 46:1 48:1 49:1 51:1 #-1
1.8391052641309135751157555205282 4:-1 5:1 27:1 30:1 31:1 38:2 40:1 #1
-5 4:-1 16:1 27:1 30:1 31:1 38:2 40:1 #-1
8.8385317161720635681376734282821 8:1 14:-1 27:1 37:1 42:1 44:2 46:1 #1
7.466731830534390823572721274104 5:1 11:-1 27:1 35:1 40:1 42:1 44:2 46:1 48:1 51:1 #1
-5 5:1 11:-1 27:1 35:1 40:1 42:1 44:2 46:1 48:1 51:1 #-1
-1.6107791871911107950410269040731 9:1 22:-1 27:2 30:1 32:1 35:1 37:1 39:1 40:1 44:2 46:2 49:1 51:1 #-1
1.8056481283172518548241214375594 4:-1 11:1 27:1 30:1 31:1 38:2 40:1 #1
2.9304677821747127097751217661425 4:-1 17:1 27:1 30:1 31:1 38:2 40:1 #1
10 7:1 8:-1 37:1 38:1 43:1 46:1 49:1 51:2 #1
2.5202892517479118517087499640184 9:1 20:-1 27:2 35:1 40:1 44:2 48:2 51:1 #1
6.4719770035747741232512453279924 5:1 17:-1 37:1 38:1 39:1 43:1 44:2 #1
0.20031313586641258384091202060517 13:1 14:-1 27:3 31:1 37:1 38:1 39:1 40:1 45:1 48:1 #1
-0.72251880162847337274456549494062 1:1 14:-1 29:2 30:1 33:1 45:2 46:1 51:2 #-1
-5 17:-1 25:1 33:1 45:1 #-1
8.4438587185178022309628431685269 4:-1 8:1 27:1 30:1 31:1 38:2 40:1 #1
-0.043684223362752572228373537654988 1:-1 16:1 27:1 30:2 32:1 33:1 35:2 44:1 48:3 #-1
4.59003276332589749131329881493 1:1 18:-1 33:2 35:1 44:1 48:1 51:1 #1
2.7552857862514827935740413522581 7:1 18:-1 33:2 35:1 44:1 48:1 51:1 #1
-2.9798102203938712229103202844271 4:-1 7:1 33:1 37:1 38:1 44:2 46:1 51:1 #-1
-3.4036867780460529075980957713909 1:1 22:-1 27:1 32:1 33:1 35:2 44:1 46:1 51:1 #-1
-0.87761988182859651530520750384312 7:1 13:-1 29:1 42:1 48:1 51:1 #-1
1.6389020883406772988166721916059 4:-1 19:1 27:1 29:1 30:1 31:2 38:1 40:1 44:2 #1
10 11:-1 16:1 27:1 30:1 31:2 35:1 38:2 46:1 #1
-5 11:-1 16:1 27:1 30:1 31:2 35:1 38:2 46:1 #-1
-2.4286432685461503133694805001142 8:1 11:-1 27:1 30:1 31:2 35:1 38:2 46:1 #-1
9.2168914450851300301792434765957 1:-1 20:1 29:1 30:1 38:1 44:2 48:1 #1
8.3022789170628303878629594692029 7:-1 19:1 37:1 38:1 42:1 44:1 #1
3.7188167214194653986680805246579 1:-1 19:1 27:1 33:1 34:1 35:1 37:1 44:1 #1
-5 1:-1 19:1 29:1 30:1 38:1 44:2 48:1 #-1
-2.4841421573937072508897472289391 7:-1 19:1 30:1 37:1 40:1 42:1 43:1 44:1 #-1
1.5426935659959220004111557500437 1:-1 16:1 37:1 38:1 40:1 42:1 44:1 #1
4.1389835194062456480423861648887 1:1 18:-1 27:1 30:1 33:1 37:1 40:1 42:1 44:1 45:1 46:2 51:1 #1
4.0026691914702299257555750955362 8:1 18:-1 27:1 29:2 32:1 37:1 40:1 44:1 46:1 49:1 #1
-0.81623418208281717234342522715451 20:1 22:-1 33:2 37:1 42:1 44:1 45:1 51:1 #-1
-0.2825440583933457316945236925676 1:1 5:-1 27:2 35:1 37:1 38:1 43:1 45:1 46:1 51:1 #-1
-0.75966017509704697463490674635977 1:1 9:-1 32:1 35:1 44:2 46:1 48:1 #-1
-1.3615482123305335804275273403618 1:1 6:-1 29:2 30:1 31:1 38:1 40:1 42:1 44:1 46:1 #-1
-0.44357458706492014499644938041456 9:-1 22:1 27:2 30:2 33:1 35:1 37:1 38:1 44:1 45:1 46:1 51:1 #-1
7.5627907321568450527138338657096 17:-1 25:1 31:1 45:1 #1
3.4489500795172842728675277612638 4:-1 14:1 27:1 31:2 33:1 40:1 42:1 43:1 #1
-3.1298588254110519812911661574617 7:1 11:-1 27:1 31:2 35:1 37:1 38:1 43:1 48:1 #-1
-1.4933558338590831038317219281453 8:1 11:-1 27:1 30:1 31:2 35:1 38:2 46:1 #-1
5.3684890289152402687022913596593 1:1 5:-1 30:1 32:1 33:2 35:2 38:2 44:3 51:1 #1
1.933225348399029819290717568947 5:-1 6:1 30:1 32:1 33:2 35:2 38:2 44:3 51:1 #1
2.3746427091324684433004676975543 5:-1 8:1 30:1 32:1 33:2 35:2 38:2 44:3 51:1 #1
-5 5:1 20:-1 27:1 32:1 33:1 38:1 40:1 44:1 45:1 #-1
-5 5:-1 14:1 30:1 32:1 33:2 35:2 38:2 44:3 51:1 #-1
7.7202564378284961321696755476296 1:-1 22:1 27:2 31:1 35:1 38:4 39:1 46:1 48:1 #1
-2.3600940105775065624982289591571 1:1 11:-1 27:1 31:2 35:2 37:1 38:1 48:2 #-1
-4.4649878851054154438315890729427 1:-1 16:1 27:2 31:1 35:1 38:4 39:1 46:1 48:1 #-1
-5 1:-1 5:1 27:2 31:1 35:1 38:4 39:1 46:1 48:1 #-1
-5 1:-1 25:1 27:2 31:1 35:1 38:4 39:1 46:1 48:1 #-1
9.7270263537824579458401785814203 5:-1 11:1 30:1 33:1 43:1 44:1 46:1 51:1 #1
1.4674791290565667445378039701609 6:-1 23:1 33:2 43:1 45:1 #1
6.8734291258382347322708483261522 3:-1 20:1 30:1 33:1 35:2 38:1 40:2 44:1 48:1 #1
-3.5998619424459583626685343915597 5:1 20:-1 27:1 32:1 33:1 38:1 40:1 44:1 45:1 #-1
-0.81079793517904452659905700784293 5:1 22:-1 30:1 31:1 32:1 33:1 34:1 40:1 #-1
-1.902013542725734529525993821153 11:1 22:-1 30:1 31:1 32:1 33:1 34:1 40:1 #-1
-0.84821405364168267482227747677825 22:-1 25:1 30:1 31:1 32:1 33:1 34:1 40:1 #-1
7.6103794273889349142336868681014 1:-1 6:1 27:2 31:1 35:1 38:4 39:1 46:1 48:1 #1
8.1919769272179721042448363732547 1:-1 9:1 27:2 31:1 35:1 38:4 39:1 46:1 48:1 #1
4.8205953078306640335881638748106 1:-1 12:1 27:2 31:1 35:1 38:4 39:1 46:1 48:1 #1
-4.3710588726066292863947637670208 1:-1 14:1 27:2 31:1 35:1 38:4 39:1 46:1 48:1 #-1
-5 1:-1 17:1 27:2 31:1 35:1 38:4 39:1 46:1 48:1 #-1
-3.3843216188519122944455830293009 1:-1 19:1 27:2 31:1 35:1 38:4 39:1 46:1 48:1 #-1
10 7:1 19:-1 27:1 30:1 31:2 33:1 35:1 37:1 40:1 48:1 #1
10 4:1 20:-1 27:1 30:1 32:1 33:1 35:2 40:2 48:1 #1
3.7847257679482448899932478525443 1:1 8:-1 27:1 29:2 30:1 32:2 37:1 40:1 42:1 48:2 #1
-5 1:1 19:-1 27:1 30:1 31:2 33:1 35:1 37:1 40:1 48:1 #-1
-4.065335004697718801480732508935 4:-1 14:1 27:1 33:2 35:1 37:1 40:1 42:1 46:1 48:1 #-1
8.0399578857837568079958145972341 1:-1 3:1 27:2 31:1 35:1 38:4 39:1 46:1 48:1 #1
6.3997214794614549759899091441184 1:-1 13:1 27:2 31:1 35:1 38:4 39:1 46:1 48:1 #1
-3.4514313438969530523081630235538 1:-1 11:1 27:2 31:1 35:1 38:4 39:1 46:1 48:1 #-1
-3.6017979282544616559391670307377 1:-1 4:1 27:2 31:1 35:1 38:4 39:1 46:1 48:1 #-1
-2.6776263312227963631073635042412 1:-1 20:1 27:2 31:1 35:1 38:4 39:1 46:1 48:1 #-1
8.739184199024169430458641727455 1:1 19:-1 27:1 30:1 31:2 33:1 35:1 37:1 40:1 48:1 #1
3.5469008487143511842987209092826 4:-1 14:1 33:1 35:1 37:1 40:1 45:1 48:1 49:1 #1
2.3345161579028221865428349701688 4:-1 19:1 33:1 35:1 37:1 40:1 45:1 48:1 49:1 #1
-5 1:1 19:-1 27:1 30:1 31:2 33:1 35:1 37:1 40:1 48:1 #-1
-5 4:-1 17:1 33:1 35:1 37:1 40:1 45:1 48:1 49:1 #-1
-5 4:-1 5:1 33:1 35:1 37:1 40:1 45:1 48:1 49:1 #-1
-5 3:-1 22:1 30:1 33:1 35:2 38:1 40:2 44:1 48:1 #-1
-2.1435839574012689467963355127722 1:-1 8:1 27:2 31:1 35:1 38:4 39:1 46:1 48:1 #-1
-3.1418273494002422197013402183075 1:-1 7:1 27:2 31:1 35:1 38:4 39:1 46:1 48:1 #-1
5.4836342648841309710405766963959 1:1 11:-1 30:1 31:2 33:1 35:1 38:1 40:1 45:1 48:2 #1
3.7246882727506660515359726559836 4:-1 6:1 33:1 35:1 37:1 40:1 45:1 48:1 49:1 #1
-2.8728282674965974763381382217631 1:1 7:-1 27:1 31:1 37:1 40:1 45:1 48:1 51:1 #-1
-5 7:1 19:-1 27:1 30:1 31:2 33:1 35:1 37:1 40:1 48:1 #-1
-4.9668572195241553757227848109324 5:1 11:-1 27:1 38:1 40:1 45:1 48:1 #-1
10 1:1 13:-1 29:1 42:1 48:1 51:1 #1
-5 7:1 13:-1 29:1 42:1 48:1 51:1 #-1
1.3037678771138818678565485242871 5:1 8:-1 35:1 37:1 38:4 44:1 46:1 48:1 #1
1.2162889658473721166132008875138 8:-1 17:1 35:1 37:1 38:4 44:1 46:1 48:1 #1
7.1031090739433153657955699600279 5:1 13:-1 29:1 42:1 48:1 51:1 #1
-2.5388213323254911202297989802901 1:1 5:-1 31:1 33:1 37:1 38:1 43:1 45:1 49:1 #-1
-5 8:-1 18:1 29:1 31:1 34:1 43:1 #-1
4.2713292345310218678378078038804 8:-1 18:1 29:1 31:1 34:1 43:1 #1
3.4995960463362525416641801712103 12:1 16:-1 32:1 37:1 39:1 43:1 #1
-4.9798192928888145303290002630092 12:1 13:-1 29:1 42:1 48:1 51:1 #-1
-1.0929790454216576911505853786366 3:1 20:-1 30:1 31:1 35:1 37:1 38:3 40:1 43:1 44:1 #-1
9.3362088501616966595975100062788 4:1 13:-1 29:1 42:1 48:1 51:1 #1
-4.0527721890615762134757460444234 1:1 11:-1 27:2 30:1 31:2 35:1 39:1 43:1 45:1 #-1
-5 4:-1 5:1 27:1 37:2 46:1 #-1
6.0576277704472571983274065132719 12:1 13:-1 27:1 31:1 37:1 38:2 40:2 43:2 44:2 45:1 #1
5.1899109502894651413384963234421 4:1 14:-1 27:1 38:2 40:1 42:1 43:1 #1
-5 12:1 13:-1 29:1 42:1 48:1 51:1 #-1
-3.6394353063448909857413582358276 11:1 13:-1 27:1 31:1 37:1 38:2 40:2 43:2 44:2 45:1 #-1
-1.9301895455170803295175119274063 1:1 13:-1 27:1 31:1 37:1 38:2 40:2 43:2 44:2 45:1 #-1
-5 13:-1 22:1 29:1 42:1 48:1 51:1 #-1
4.2934650611049844926014884549659 1:1 3:-1 27:2 30:1 31:1 33:1 35:1 37:1 38:1 46:1 51:1 #1
5.7668532856239584916124840674456 5:-1 17:1 27:2 30:1 31:1 33:1 37:1 #1
-0.84980558926057536694997907034121 1:1 22:-1 27:1 30:1 31:1 32:1 33:1 38:1 42:1 46:1 48:1 #-1
8.9647109017889832216496870387346 11:1 13:-1 29:1 42:1 48:1 51:1 #1
-4.8464396223891448300946649396792 9:1 13:-1 29:1 42:1 48:1 51:1 #-1
0.33527564832687545282041696736997 1:1 4:-1 27:1 29:1 30:1 31:2 38:1 40:1 44:2 #1
-5 4:-1 14:1 27:1 29:1 30:1 31:2 38:1 40:1 44:2 #-1
-3.5196027031798404749451947282068 5:-1 11:1 27:2 29:1 30:1 31:1 38:1 44:2 #-1
-0.15510179938951243472367025333369 9:-1 22:1 27:2 30:1 35:1 37:3 38:3 42:1 43:1 48:2 49:1 #-1
-2.77687886781849080364281689981 1:1 7:-1 29:2 42:1 46:1 51:1 #-1
-0.12701135841260580150446912739426 4:1 8:-1 37:1 38:1 43:1 46:1 49:1 51:2 #-1
0.24322948468097796426157231053367 4:-1 9:1 27:1 29:1 30:1 31:2 38:1 40:1 44:2 #1
5.2293321822568188395052857231349 4:-1 14:1 27:1 29:1 30:1 31:2 38:1 40:1 44:2 #1
-5 1:1 7:-1 27:2 31:1 35:1 38:1 40:1 44:2 48:1 #-1
6.3193059198754513161588874936569 14:1 19:-1 27:1 32:1 37:2 38:2 45:1 48:1 #1
10 1:-1 22:1 38:1 42:1 46:1 48:1 51:1 #1
6.4431640761740256451162167650182 1:1 22:-1 27:1 33:1 34:1 37:2 38:1 46:2 48:2 #1
-5 1:1 19:-1 27:1 32:1 37:2 38:2 45:1 48:1 #-1
-1.2794321203412963861012485722313 7:1 8:-1 37:1 38:1 43:1 46:1 49:1 51:2 #-1
7.9763062771788195703948076697998 1:1 7:-1 27:2 31:1 35:1 38:1 40:1 44:2 48:1 #1
-5 6:1 7:-1 31:1 32:1 33:1 34:1 35:2 38:1 46:1 51:1 #-1
-3.1906985698712682086863878794247 7:-1 22:1 27:1 30:1 31:1 33:1 35:1 38:1 44:1 46:1 51:1 #-1
-0.22684918350635552286576057667844 1:1 12:-1 30:1 33:1 40:1 42:1 48:2 #-1
2.2035071516519590950622387026669 4:1 19:-1 27:1 32:1 37:2 38:2 45:1 48:1 #1
6.1648891159553942387105962552596 5:-1 17:1 31:1 37:2 38:2 45:1 #1
2.8827604451346542369094549940201 8:-1 25:1 29:2 30:1 31:1 32:1 38:1 42:2 43:1 51:1 #1
-5 7:1 8:-1 37:1 38:1 43:1 46:1 49:1 51:2 #-1
-0.69011219105580734467508818852366 9:-1 23:1 29:1 31:1 32:1 35:1 38:1 39:1 40:2 48:1 #-1
-0.22511053056683458239994877203571 8:-1 14:1 30:1 33:1 35:2 38:3 46:1 #-1
5.4070034010246432742974320717622 1:1 11:-1 27:2 30:1 31:1 32:1 35:1 38:1 44:1 #1
3.2084806341664227069543358084047 19:1 20:-1 30:1 33:1 34:1 35:2 37:1 38:2 51:3 #1
1.8818213196775743778488276802818 4:-1 19:1 31:1 33:1 37:1 38:1 46:2 51:2 #1
4.2629301943632640359282959252596 4:-1 20:1 31:1 33:1 37:1 38:1 46:2 51:2 #1
-5 1:1 4:-1 31:1 33:1 37:1 38:1 46:2 51:2 #-1
-0.16050691934333283228397704078816 18:-1 19:1 30:1 33:2 37:1 38:1 42:1 45:3 46:1 49:1 #-1
-1.9179144050059899750948488872382 8:-1 14:1 37:1 38:1 43:1 46:1 49:1 51:2 #-1
10 1:1 5:-1 27:2 30:1 39:1 40:1 44:1 48:1 49:1 #1
-5 5:-1 11:1 27:2 30:1 39:1 40:1 44:1 48:1 49:1 #-1
-4.5032309301393462774854015151504 1:1 12:-1 27:1 29:1 30:1 31:1 32:1 42:2 #-1
10 18:1 20:-1 30:1 33:1 46:2 48:1 49:1 #1
-4.7572705849376095699199140653946 18:1 20:-1 30:1 33:1 46:2 48:1 49:1 #-1
-1.0606626150058271473852755661937 1:1 11:-1 27:2 30:1 31:1 33:1 35:1 38:2 40:2 45:1 #-1
4.9551738438065235925478191347793 4:-1 5:1 30:1 33:1 37:1 43:1 45:1 46:1 48:1 #1
-3.2612025966868585236113631253829 5:-1 17:1 27:1 31:1 37:2 45:1 48:1 #-1
-4.6374793512169585341098354547285 1:-1 20:1 38:1 42:1 46:1 48:1 51:1 #-1
-1.5571273735067951982102840702282 1:1 5:-1 27:2 30:1 37:2 48:2 49:1 #-1
6.0359519101826437648128376167733 20:-1 22:1 27:1 40:2 45:1 51:1 #1
6.8878235677403925052431077347137 9:-1 22:1 27:2 30:1 31:1 32:1 33:1 37:1 38:2 40:1 42:1 45:1 48:3 #1
-3.1710348553147720274125731521053 1:1 9:-1 27:2 30:1 31:1 32:1 33:1 37:1 38:2 40:1 42:1 45:1 48:3 #-1
0.1920733677760332880346538786398 8:-1 16:1 29:1 31:1 34:1 43:1 #1
-5 4:1 8:-1 29:1 31:1 34:1 43:1 #-1
-4.0281918086768886411164203309454 9:-1 19:1 31:1 51:1 #-1
4.5524844006178115662919481110293 1:1 16:-1 27:2 31:1 37:1 38:2 43:1 45:1 #1
3.4019133298246280183718681655591 1:1 5:-1 27:3 30:1 37:2 38:2 45:1 46:1 #1
5.8272168861012705320945315179415 4:1 8:-1 29:1 31:1 34:1 43:1 #1
-3.385771721472622619586445580353 1:1 6:-1 27:3 31:1 37:2 38:2 39:1 43:1 45:1 46:1 #-1
-5 6:-1 12:1 31:2 32:1 34:1 37:1 38:4 42:1 46:1 #-1
-5 4:-1 8:1 27:2 31:2 32:1 37:2 38:1 39:1 42:1 #-1
-2.6315209034544655430920556682395 1:1 7:-1 27:1 29:1 33:1 39:1 44:1 #-1
-1.9707209782352796967330732513801 1:1 3:-1 27:1 29:1 34:1 38:1 40:1 44:1 49:1 #-1
-1.0661443844978246708876667980803 1:1 5:-1 27:1 29:1 30:1 39:1 44:1 45:1 #-1
7.4819934488085308998961409088224 6:-1 25:1 31:2 32:1 34:1 37:1 38:4 42:1 46:1 #1
7.0196278680139148065109111485071 1:1 4:-1 27:2 31:2 32:1 37:2 38:1 39:1 42:1 #1
6.9248571540107901611804663843941 6:1 25:-1 31:2 32:3 34:1 35:1 37:1 40:2 48:1 51:2 #1
-5 23:1 25:-1 31:2 32:3 34:1 35:1 37:1 40:2 48:1 51:2 #-1
-1.6427610979982418815126266053994 6:1 23:-1 27:1 31:1 33:1 34:1 37:2 38:4 39:1 48:3 #-1
-5 6:1 23:-1 27:1 31:2 33:2 37:1 38:4 43:1 45:1 48:1 #-1
-2.7476666456247724745765026455047 7:1 20:-1 30:1 34:1 38:1 43:1 51:2 #-1
-5 1:-1 5:1 27:2 33:1 43:2 45:1 46:1 51:1 #-1
-0.090983807051606913063324100221507 1:-1 8:1 27:2 33:1 43:2 45:1 46:1 51:1 #-1
7.0923515168321875634660500509199 6:1 23:-1 27:1 31:2 33:2 37:1 38:4 43:1 45:1 48:1 #1
3.4534144471584538038655409764033 1:1 19:-1 27:1 32:1 38:3 39:1 40:2 44:1 46:1 #1
-2.7401641230028976892185710312333 6:-1 22:1 27:1 33:1 35:1 38:4 39:1 44:2 46:3 48:1 49:1 #-1
10 1:-1 14:1 27:2 33:1 43:2 45:1 46:1 51:1 #1
10 1:-1 5:1 27:2 33:1 43:2 45:1 46:1 51:1 #1
10 1:-1 4:1 27:2 33:1 43:2 45:1 46:1 51:1 #1
-5 1:-1 4:1 27:2 33:1 43:2 45:1 46:1 51:1 #-1
-4.8063568396324560794141689257231 1:-1 22:1 27:2 33:1 43:2 45:1 46:1 51:1 #-1
-2.5576108445719714090671459416626 1:-1 13:1 27:2 33:1 43:2 45:1 46:1 51:1 #-1
9.3164208441827423001768693211488 6:-1 12:1 27:1 33:1 35:1 38:4 39:1 44:2 46:3 48:1 49:1 #1
0.30520492758190292947872990225733 1:-1 9:1 27:1 29:2 31:1 32:1 37:1 39:1 40:1 48:1 49:2 #1
-0.76309958409863720696364453033311 9:-1 25:1 29:1 31:1 32:1 35:1 38:1 39:1 40:2 48:1 #-1
-2.3865910208456657670694767148234 4:1 9:-1 29:1 31:1 32:1 35:1 38:1 39:1 40:2 48:1 #-1
6.7465963602386658237719530006871 8:1 25:-1 27:2 35:1 43:1 45:1 48:1 #1
2.3813166606982321127361501567066 17:1 25:-1 27:2 35:1 43:1 45:1 48:1 #1
-5 23:1 25:-1 27:2 35:1 43:1 45:1 48:1 #-1
-4.544315047753639369432221428724 1:-1 12:1 27:2 33:1 43:2 45:1 46:1 51:1 #-1
-1.6764117799435840350241733176517 1:-1 8:1 27:2 33:1 43:2 45:1 46:1 51:1 #-1
9.9347528582697108845422917511314 9:-1 12:1 29:1 31:1 32:1 35:1 38:1 39:1 40:2 48:1 #1
-0.84135407377137272355582808813779 9:-1 25:1 29:1 31:1 32:1 35:1 38:1 39:1 40:2 48:1 #-1
-1.9683581958161446845423370177741 9:-1 13:1 29:1 31:1 32:1 35:1 38:1 39:1 40:2 48:1 #-1
-0.61260094979505019807675125775859 1:1 9:-1 29:1 31:1 32:1 35:1 38:1 39:1 40:2 48:1 #-1
1.1664537158818346629374218537123 6:1 25:-1 27:2 35:1 43:1 45:1 48:1 #1
2.2670213279047346510708393907407 5:-1 12:1 27:2 37:1 43:1 45:1 46:1 48:1 #1
-5 4:1 19:-1 27:2 38:1 40:1 42:1 45:1 46:1 51:1 #-1
-0.83409812698178420475869643269107 9:-1 16:1 29:1 31:1 32:1 35:1 38:1 39:1 40:2 48:1 #-1
10 4:1 19:-1 27:2 38:1 40:1 42:1 45:1 46:1 51:1 #1
-5 12:1 13:-1 30:1 32:1 33:1 35:1 37:1 38:1 43:1 45:2 48:1 #-1
-5 14:1 19:-1 27:2 38:1 40:1 42:1 45:1 46:1 51:1 #-1
5.1890510314813402814593246148434 23:1 25:-1 31:1 33:1 40:2 51:1 #1
-5 12:1 13:-1 27:1 29:1 31:2 32:2 34:1 38:1 40:2 48:2 #-1
10 9:1 13:-1 30:1 32:1 33:1 35:1 37:1 38:1 43:1 45:2 48:1 #1
-4.0602811549018946735145618731622 13:-1 20:1 30:1 32:1 33:1 35:1 37:1 38:1 43:1 45:2 48:1 #-1
-2.9720495914395437253574527858291 6:1 13:-1 30:1 32:1 33:1 35:1 37:1 38:1 43:1 45:2 48:1 #-1
10 12:1 13:-1 27:1 29:1 31:2 32:2 34:1 38:1 40:2 48:2 #1
4.5800916221049163823408889584243 1:1 4:-1 33:1 35:1 37:1 40:1 45:1 48:1 49:1 #1
10 13:-1 22:1 30:1 32:1 33:1 35:1 37:1 38:1 43:1 45:2 48:1 #1
-3.2974511138810509436325446586125 1:1 11:-1 27:1 31:1 40:2 44:2 51:1 #-1
-4.943657369829163705787777871592 1:1 25:-1 31:1 40:1 42:1 48:1 #-1
1.5586286361598986616172624053434 4:-1 11:1 33:1 35:1 37:1 40:1 45:1 48:1 49:1 #1
-4.0354866443890973215502526727505 1:1 13:-1 30:1 32:1 33:1 35:1 37:1 38:1 43:1 45:2 48:1 #-1
-2.6643116107761564137490495340899 3:1 13:-1 30:1 32:1 33:1 35:1 37:1 38:1 43:1 45:2 48:1 #-1
-3.6516980215398047171504458674463 13:-1 22:1 27:1 29:1 31:2 32:2 34:1 38:1 40:2 48:2 #-1
4.6493864958949009391631079779472 11:-1 17:1 37:1 #1
-5 4:-1 14:1 30:1 33:1 37:1 43:1 45:1 46:1 48:1 #-1
-5 1:1 4:-1 30:1 33:1 37:1 43:1 45:1 46:1 48:1 #-1
-2.262692663571310269787772995187 4:-1 19:1 27:1 30:1 33:1 38:1 43:1 44:1 46:1 48:1 51:1 #-1
3.4516373401910906970613268640591 6:-1 25:1 27:2 29:1 31:1 37:1 44:1 45:1 49:1 #1
6.9107549654097137903363545774482 1:1 4:-1 30:1 33:1 37:1 43:1 45:1 46:1 48:1 #1
-1.2050954669837681265676110342611 9:1 13:-1 27:1 29:1 31:2 32:2 34:1 38:1 40:2 48:2 #-1
4.6544923468743251149248862930108 4:-1 14:1 30:1 33:1 37:1 43:1 45:1 46:1 48:1 #1
-3.4786017318041597690125854569487 1:-1 22:1 27:1 31:1 32:1 37:2 42:1 45:1 46:1 #-1
-2.8729561214981531591661223501433 1:1 20:-1 27:1 30:2 37:1 46:1 #-1
-2.0549478470686755038343562773662 8:-1 25:1 31:2 33:1 37:3 42:1 46:1 #-1
7.2952981157937877298991224961355 4:-1 5:1 27:2 38:1 40:1 42:1 48:1 #1
4.2501492938877030169919635227416 11:1 17:-1 27:2 30:1 31:1 33:1 34:1 38:1 51:1 #1
-1.3217674964139927151762776702526 6:-1 11:1 27:1 30:1 33:2 34:2 35:1 38:1 39:1 42:1 43:1 48:1 #-1
-0.69981055401661462767037846788298 16:1 17:-1 27:2 29:1 33:1 34:2 38:1 #-1
-1.6261920277386496813676330930321 8:1 11:-1 27:2 37:1 38:1 40:1 42:1 48:1 #-1
-4.3197642689717925534864662040491 1:1 5:-1 27:3 30:1 37:2 39:1 45:1 #-1
2.8032403346890255591006280155852 5:1 18:-1 30:1 34:1 35:1 37:1 38:2 43:3 44:1 48:1 #1
4.6743535444391426381116616539657 14:-1 19:1 31:1 32:2 33:1 37:2 40:1 46:1 #1
-3.0125364575014770274208331102272 1:1 18:-1 30:1 31:1 33:1 35:1 44:1 48:1 51:1 #-1
-0.41417951673738850892902974010212 19:-1 20:1 30:1 32:1 34:1 35:1 37:1 38:2 39:1 44:2 45:1 48:1 #-1
-0.26762021226298765563811343781708 4:-1 7:1 27:1 30:1 33:1 38:1 43:1 44:1 46:1 48:1 51:1 #-1
-2.8618003752171152775929385825293 1:1 8:-1 27:2 32:1 33:1 40:2 44:1 46:2 #-1
-0.014154548194109217718050786061212 9:-1 22:1 30:1 33:2 35:1 38:1 39:1 40:1 44:1 45:1 48:1 49:1 51:1 #-1
7.162188274749854421941108739702 20:-1 22:1 27:1 34:1 35:1 37:1 38:1 39:1 42:1 44:1 48:3 51:1 #1
-5 3:1 20:-1 27:1 34:1 35:1 37:1 38:1 39:1 42:1 44:1 48:3 51:1 #-1
10 5:-1 17:1 27:2 33:1 38:1 39:2 40:2 43:1 44:1 45:1 48:1 51:1 #1
-5 5:-1 17:1 27:2 33:1 38:1 39:2 40:2 43:1 44:1 45:1 48:1 51:1 #-1
-5 4:1 5:-1 27:2 33:1 38:1 39:2 40:2 43:1 44:1 45:1 48:1 51:1 #-1
-5 1:1 5:-1 27:2 33:1 38:1 39:2 40:2 43:1 44:1 45:1 48:1 51:1 #-1
5.1061398829357527162642327311914 1:1 7:-1 27:1 32:1 33:1 46:2 48:1 #1
9.4053842364423250188565361895598 4:1 5:-1 27:2 33:1 38:1 39:2 40:2 43:1 44:1 45:1 48:1 51:1 #1
5.2814758555952217022877448471263 11:-1 13:1 27:2 30:2 33:1 35:1 37:2 38:1 39:1 40:1 45:1 49:2 51:1 #1
-3.2862087446934347134686049685115 4:1 7:-1 27:2 38:1 40:1 43:1 48:2 49:1 #-1
-1.2964463895759763545356690883636 1:1 4:-1 31:1 32:1 33:2 35:2 37:1 44:1 46:1 49:1 #-1
-2.7260683600077704191733118932461 4:1 11:-1 29:1 31:1 32:2 37:1 38:1 40:1 46:1 #-1
2.20981321477053604951379384147 6:1 13:-1 27:1 33:1 37:1 40:1 42:1 45:1 48:3 49:2 #1
-3.6887528618456300044670115312329 1:-1 9:1 27:2 33:1 43:2 45:1 46:1 51:1 #-1
-3.0116159152839863111239537829533 1:-1 11:1 27:2 33:1 43:2 45:1 46:1 51:1 #-1
4.8859244222730646711738700105343 1:1 6:-1 31:1 33:1 37:1 45:1 46:1 #1
-1.0171526670899009303639104473405 1:1 4:-1 27:1 31:1 35:1 37:1 43:1 44:2 48:1 #-1
-4.9575878729445914672169237746857 1:1 5:-1 27:1 30:1 37:1 42:1 43:1 #-1
-2.9039345001119039046955094818259 1:1 14:-1 30:1 33:1 35:2 37:1 40:1 42:1 45:1 48:1 51:1 #-1
8.5785076863790674650545042823069 5:1 11:-1 33:1 35:2 38:1 40:1 44:1 46:1 48:1 51:1 #1
10 19:-1 22:1 31:1 32:1 34:1 35:2 38:1 40:1 46:2 48:1 #1
3.7295252119845234695105773425894 1:1 17:-1 27:1 30:1 31:1 32:1 33:1 35:2 40:2 46:1 49:1 51:1 #1
-5 12:1 19:-1 31:1 32:1 34:1 35:2 38:1 40:1 46:2 48:1 #-1
-5 5:1 11:-1 33:1 35:2 38:1 40:1 44:1 46:1 48:1 51:1 #-1
-0.77737607501863426051613714662381 1:-1 17:1 27:2 33:1 43:2 45:1 46:1 51:1 #-1
2.0581800026224179589462437434122 11:-1 18:1 32:1 35:2 38:1 44:1 46:1 51:1 #1
1.1290547237061705487803919822909 4:1 19:-1 30:1 33:1 35:1 48:2 #1
-1.049055648462996037650896141713 1:1 11:-1 30:1 31:2 38:1 46:1 48:1 49:1 #-1
-5 1:1 19:-1 31:1 33:1 37:1 38:1 43:1 46:1 48:2 #-1
-3.3678685697889965133811074338155 12:-1 22:1 35:2 38:1 44:2 45:1 46:1 48:2 51:1 #-1
-0.47113458422655796198341704439372 1:-1 18:1 27:2 33:1 43:2 45:1 46:1 51:1 #-1
-0.026528081110686940746745676733553 1:-1 25:1 27:2 33:1 43:2 45:1 46:1 51:1 #-1
8.3785970581447433147559422650374 1:1 17:-1 31:2 33:1 34:1 37:1 38:2 48:1 49:1 #1
-3.5406914225280079477897743345238 1:1 11:-1 27:2 30:2 33:1 35:1 37:2 38:1 39:1 40:1 45:1 49:2 51:1 #-1
-0.23640328092478837818113390767394 1:1 22:-1 27:2 30:2 32:3 35:1 38:1 40:1 43:1 48:1 #-1
0.55460218649234727106289710718556 3:1 25:-1 27:2 35:1 43:1 45:1 48:1 #1
-0.031729636317258808064778463631228 9:-1 22:1 27:2 29:2 30:1 32:1 38:1 40:1 43:1 45:1 46:1 49:2 51:1 #-1
-2.5281373491081708948513551149517 1:-1 4:1 27:1 31:1 33:1 38:1 43:1 45:1 #-1
-3.7783725320021286364635670906864 6:1 25:-1 27:1 29:1 40:2 44:1 45:1 48:1 49:1 #-1
-0.2867841904968144173260213847243 9:-1 22:1 27:1 30:2 32:1 35:1 40:3 44:1 46:1 48:1 51:2 #-1
-1.764854793129217336300484930689 12:1 13:-1 27:1 29:1 30:1 31:1 32:1 35:2 38:1 39:1 40:2 44:1 46:1 49:1 51:1 #-1
7.0218501610401578005848932662047 3:1 25:-1 31:1 39:1 #1
-4.603873393218901099999129655771 8:1 25:-1 31:1 35:1 #-1
-0.27418897258024266250231448793784 1:-1 3:1 27:2 33:1 43:2 45:1 46:1 51:1 #-1
-5 3:1 5:-1 33:1 40:1 51:1 #-1
3.2121899334473944520595978247002 12:1 22:-1 31:1 33:1 35:1 38:1 43:2 44:1 45:1 49:3 51:1 #1
-2.3588873002142558554794504743768 1:1 22:-1 31:1 33:1 35:1 38:1 43:2 44:1 45:1 49:3 51:1 #-1
-0.48603542369895447183836267868173 9:-1 22:1 27:1 33:1 35:1 38:1 40:1 43:1 44:1 48:1 49:3 #-1
1.8663903390615248500949974186369 23:1 25:-1 27:2 31:2 32:1 33:1 34:1 38:1 40:2 43:2 #1
-3.8643915682625062935073856351664 13:-1 22:1 29:1 42:1 48:1 51:1 #-1
-3.5241847234667629251703147019725 19:1 20:-1 30:1 34:1 38:1 43:1 51:2 #-1
2.2991339186648835912762933730846 9:1 22:-1 31:1 33:1 35:1 38:1 43:2 44:1 45:1 49:3 51:1 #1
3.127076322121110862894965976011 9:1 22:-1 29:1 30:1 31:2 35:2 38:2 43:2 44:2 48:1 49:3 #1
-2.1782091006926282972244734992273 6:-1 9:1 27:1 33:1 35:1 38:4 39:1 44:2 46:3 48:1 49:1 #-1
-1.8882516096325638876862740289653 1:1 20:-1 29:1 32:1 33:3 42:2 48:1 51:2 #-1
-1.050603063797309832949622432352 14:1 25:-1 27:3 30:1 32:2 34:1 35:1 37:1 43:1 45:1 46:1 48:1 51:2 #-1
-5 1:1 20:-1 27:1 33:1 34:1 37:1 38:1 46:1 48:2 #-1
1.3609420537052634436747666768497 1:-1 16:1 30:1 33:1 40:1 44:1 51:1 #1
1.140347079515608097466383696883 4:-1 19:1 27:2 29:1 30:2 33:2 39:1 40:1 46:1 51:1 #1
-1.9988554176382582472371041149017 14:1 20:-1 27:1 30:1 32:1 33:1 35:2 40:2 48:1 #-1
-5 4:-1 14:1 27:2 29:1 30:2 33:2 39:1 40:1 46:1 51:1 #-1
-1.3247993824535193585489878387307 5:1 20:-1 27:1 30:1 32:1 33:1 35:2 40:2 48:1 #-1
-1.6155209678861692790263759889058 19:1 20:-1 27:1 30:1 32:1 33:1 35:2 40:2 48:1 #-1
3.9411837494365307144050802889979 12:-1 18:1 27:2 30:1 32:1 37:1 38:1 42:1 49:1 #1
1.8425800104287100023015000260784 9:1 20:-1 27:1 29:2 31:1 32:1 34:1 35:1 38:1 46:1 48:1 49:2 #1
-3.5361592537271313574365194654092 18:1 20:-1 30:1 33:1 46:2 48:1 49:1 #-1
-5 11:-1 18:1 27:1 33:1 37:2 42:1 44:1 46:1 48:1 49:2 #-1
-2.7394609216439578247559438750613 4:-1 14:1 37:1 38:1 44:1 45:2 49:1 #-1
-4.4692533391171833656585477001499 7:-1 22:1 30:1 32:1 38:2 42:1 44:1 46:1 #-1
5.2180781066012222879635373828933 4:-1 14:1 27:2 29:1 30:2 33:2 39:1 40:1 46:1 51:1 #1
1.2994571010414379674813289966551 1:1 4:-1 27:2 29:1 30:2 33:2 39:1 40:1 46:1 51:1 #1
-0.089076137520801346170173928840086 14:1 20:-1 27:1 30:1 31:1 35:1 37:1 38:1 #-1
-1.8680021644252997603530275227968 7:1 20:-1 27:1 30:1 32:1 33:1 35:2 40:2 48:1 #-1
-5 1:-1 12:1 27:2 30:1 31:1 33:1 37:1 38:1 39:1 40:1 43:1 48:1 #-1
7.2418325417439710633971117204055 11:-1 18:1 27:1 33:1 37:2 42:1 44:1 46:1 48:1 49:2 #1
-1.6953165233297005087820252811071 18:1 20:-1 30:1 33:1 46:2 48:1 49:1 #-1
-1.678392396314065893037081877992 4:1 20:-1 30:1 33:1 46:2 48:1 49:1 #-1
-0.26037419423494562176202293812821 9:-1 22:1 27:2 29:1 31:1 33:1 37:1 38:2 42:2 43:2 48:1 51:3 #-1
9.5015769225063664293884357903153 1:-1 12:1 27:2 30:1 31:1 33:1 37:1 38:1 39:1 40:1 43:1 48:1 #1
0.15396594270376739999051096674521 1:1 11:-1 27:1 30:1 37:2 42:1 46:1 #1
-5 1:-1 11:1 27:2 30:1 31:1 33:1 37:1 38:1 39:1 40:1 43:1 48:1 #-1
-1.4888801464509888727860698054428 20:1 22:-1 31:3 33:2 34:1 38:1 43:1 44:1 #-1
-3.9521661651204751386501357046654 1:-1 12:1 27:1 30:1 31:1 38:2 39:1 40:1 44:1 45:1 48:1 49:1 #-1
3.1676220790608708988145281182369 4:-1 7:1 33:1 35:1 37:1 40:1 45:1 48:1 49:1 #1
8.6114172871050058688524586614221 5:1 18:-1 27:1 30:1 32:1 33:1 35:1 44:1 46:3 49:1 #1
-5 5:1 18:-1 27:1 30:1 32:1 33:1 35:1 44:1 46:3 49:1 #-1
-1.9816966499583821281760265264893 1:1 19:-1 30:1 33:1 44:1 45:1 46:1 49:1 51:1 #-1
1.9483864787578653032795727995108 12:-1 22:1 31:1 40:1 44:2 45:2 46:3 51:1 #1
5.6409690941314911682979982288089 6:1 25:-1 27:5 30:3 31:2 32:2 34:1 35:2 37:2 39:1 48:2 51:2 #1
-3.8849979774369618468199405469932 5:1 11:-1 27:1 32:1 33:1 34:1 35:1 43:1 45:1 46:2 48:1 49:1 51:2 #-1
-2.3886069668280871525212205597199 4:-1 13:1 37:1 38:1 40:1 42:1 51:1 #-1
2.6745466351751323585972386354115 1:-1 20:1 29:1 32:1 33:1 34:1 38:1 45:1 46:2 48:2 49:1 51:1 #1
-0.060585471348501424015964289537806 1:1 14:-1 32:1 35:2 40:2 45:1 46:2 48:2 51:2 #-1
-5 1:1 25:-1 27:5 30:3 31:2 32:2 34:1 35:2 37:2 39:1 48:2 51:2 #-1
-1.6959517315067897946789798879763 4:1 7:-1 32:1 44:2 46:4 48:1 #-1
-4.4505458645452860011459961242508 9:1 13:-1 29:1 42:1 48:1 51:1 #-1
10 12:-1 13:1 30:1 32:1 33:2 34:1 35:3 38:2 43:1 44:1 #1
-4.581966221047692577883481135359 9:1 12:-1 30:1 32:1 33:2 34:1 35:3 38:2 43:1 44:1 #-1
-2.680327407146047669073141150875 12:-1 22:1 30:1 32:1 33:2 34:1 35:3 38:2 43:1 44:1 #-1
-2.5680602249109010237759775918676 1:1 12:-1 30:1 32:1 33:2 34:1 35:3 38:2 43:1 44:1 #-1
-1.4464773860688233675375613529468 6:-1 20:1 27:1 31:1 38:1 40:1 43:1 46:2 #-1
-1.604165741391922361813726638502 9:-1 13:1 27:1 30:1 33:1 34:1 35:3 38:3 43:1 44:1 48:1 #-1
-5 1:1 4:-1 27:1 30:1 32:1 33:1 44:1 46:1 48:1 #-1
-4.1922359357829472870093923120294 8:1 17:-1 27:1 30:1 35:1 44:1 48:1 49:1 #-1
-1.8670113942382076110959587822435 1:1 5:-1 27:1 30:1 32:1 33:2 35:2 37:1 38:1 44:3 51:2 #-1
3.7247188497688026309617725928547 1:1 19:-1 27:2 31:1 37:1 43:1 46:1 #1
0.70688670980519574538192273394088 1:1 19:-1 27:2 30:1 43:1 45:2 46:1 48:1 #1
-1.4233472520059164967420883840532 4:-1 7:1 27:1 30:1 33:1 38:1 43:1 44:1 46:1 48:1 51:1 #-1
-0.41135457542151820931053407548461 1:-1 6:1 27:2 33:1 43:2 45:1 46:1 51:1 #-1
-2.5588245184337847781819164083572 6:-1 8:1 31:2 32:1 34:1 37:1 38:4 42:1 46:1 #-1
-1.5996970056865278397850715919049 6:-1 13:1 27:1 33:1 35:1 38:4 39:1 44:2 46:3 48:1 49:1 #-1
8.6257173350883604712180385831743 14:1 20:-1 27:1 31:1 33:3 48:1 #1
-5 14:1 20:-1 27:1 31:1 33:3 48:1 #-1
-5 4:1 20:-1 27:1 31:1 33:3 48:1 #-1
-3.9668915397320962945570954616414 1:1 11:-1 27:2 33:1 40:1 #-1
1.1080014893386178620460214006016 5:1 11:-1 32:1 34:1 37:1 38:3 46:3 48:1 #1
0.44978081556673826790770931438601 11:-1 17:1 32:1 34:1 37:1 38:3 46:3 48:1 #1
-0.23582837974510198475464051171002 1:1 6:-1 27:1 33:1 35:1 38:4 39:1 44:2 46:3 48:1 49:1 #-1
5.218809034781624944798750220798 4:1 20:-1 27:1 31:1 33:3 48:1 #1
3.2359860830018485344794498814736 14:-1 19:1 32:1 33:2 39:1 45:1 48:1 51:1 #1
-2.8088061978897851389547213329934 11:1 18:-1 30:1 33:1 42:1 44:1 46:2 #-1
-5 12:-1 18:1 29:1 35:2 37:1 38:1 43:3 48:1 #-1
-3.2801181644675696524871000292478 1:1 9:-1 33:1 46:2 48:1 #-1
-1.2612834743796037528795750404242 6:-1 13:1 27:1 33:1 35:1 38:4 39:1 44:2 46:3 48:1 49:1 #-1
-0.68153866344308333680146461119875 1:1 9:-1 33:3 34:1 35:3 37:1 38:4 44:1 46:1 51:1 #-1
-0.9983195986407770172732512037328 9:-1 12:1 29:1 31:1 37:1 38:4 40:1 43:1 46:1 48:1 51:1 #-1
5.6219469805490289715521612379234 12:-1 23:1 29:1 35:2 37:1 38:1 43:3 48:1 #1
4.7159807250528658073562837671489 12:-1 25:1 29:1 35:2 37:1 38:1 43:3 48:1 #1
2.8018436074710737493376200291095 3:1 18:-1 30:1 33:1 42:2 46:2 48:1 51:2 #1
-5 8:1 12:-1 29:1 35:2 37:1 38:1 43:3 48:1 #-1
-1.2816214397565373062093385669868 6:1 25:-1 30:1 33:3 38:1 42:2 45:2 48:2 49:1 51:1 #-1
3.2380674998717746682075357966824 6:1 25:-1 27:1 40:2 44:1 45:1 46:2 #1
10 13:1 18:-1 38:2 39:1 40:1 43:2 45:1 46:1 #1
-5 13:1 18:-1 38:2 39:1 40:1 43:2 45:1 46:1 #-1
-3.5067276033756034081534380675294 5:1 18:-1 38:2 39:1 40:1 43:2 45:1 46:1 #-1
1.8101924377165297119773867962067 11:1 25:-1 27:1 33:3 34:2 35:1 38:1 39:1 40:1 45:2 48:1 #1
-5 7:1 17:-1 31:2 33:1 34:1 37:1 38:2 48:1 49:1 #-1
-5 6:1 25:-1 32:2 33:2 34:1 37:1 40:1 48:1 49:1 #-1
-5 1:-1 20:1 33:2 34:2 37:1 48:1 #-1
2.6329786686044451826660406368319 5:1 11:-1 27:1 32:1 38:3 43:1 45:2 46:1 #1
-2.1614824698788877022082033363404 17:1 18:-1 30:1 38:2 43:1 44:2 48:1 #-1
-1.5344607921011288453883025795221 7:1 11:-1 38:2 39:1 43:2 44:1 45:1 49:1 #-1
7.3314847257752848719292160240002 6:1 25:-1 32:2 33:2 34:1 37:1 40:1 48:1 49:1 #1
7.1244835174204883543325195205398 1:-1 20:1 33:2 34:2 37:1 48:1 #1
7.3560675459578011015082665835507 12:1 13:-1 31:1 32:2 33:2 39:1 43:1 48:2 49:1 #1
-3.6227937774377121371571774943732 11:1 13:-1 31:1 32:2 33:2 39:1 43:1 48:2 49:1 #-1
-2.0283616124235237521133967675269 1:1 11:-1 27:1 31:1 33:1 35:1 37:2 38:2 49:1 #-1
-1.6183714216688080966832785634324 7:-1 19:1 27:1 29:2 33:1 37:1 46:1 48:1 51:1 #-1
5.310830995305504842463051318191 9:-1 12:1 27:3 30:1 32:1 37:2 38:3 44:1 51:1 #1
5.0976983875513610655616503208876 9:-1 13:1 27:3 30:1 32:1 37:2 38:3 44:1 51:1 #1
-5 9:-1 22:1 27:3 30:1 32:1 37:2 38:3 44:1 51:1 #-1
-1.2621346490917124683051042666193 9:1 20:-1 27:1 32:2 33:1 35:2 37:1 38:2 40:1 43:1 45:2 #-1
-3.9083109987712854049846100679133 12:1 18:-1 31:1 32:1 33:1 38:1 43:1 45:1 48:1 #-1
-3.7842547316104466759156821353827 1:1 9:-1 27:3 30:1 32:1 37:2 38:3 44:1 51:1 #-1
-1.4339606542104186281960664928192 11:-1 17:1 27:1 30:1 31:1 35:2 37:1 38:1 40:1 42:1 43:2 44:1 48:1 #-1
5.9850793662848431608836108352989 1:1 11:-1 30:1 33:2 42:1 44:1 45:1 #1
2.3613686278338383850439186062431 9:1 20:-1 27:1 32:2 33:1 34:1 38:1 43:1 45:1 46:1 49:1 #1
-1.4085769224148410039276768657146 6:1 25:-1 30:1 33:3 35:1 37:1 39:1 44:2 48:1 49:1 #-1
-3.1544501493482668408319113950711 16:1 22:-1 33:2 37:1 39:1 43:1 45:1 #-1
-1.7365603731867145231859694831655 1:1 22:-1 27:2 31:2 34:1 35:1 37:2 38:2 42:1 48:1 51:1 #-1
2.6394578541467956789290383312618 3:1 8:-1 32:1 38:2 44:1 45:2 46:1 48:2 #1
-3.4566595943319744499433454620885 14:1 16:-1 33:1 44:1 45:1 46:1 #-1
-3.5056046903173267992315231822431 19:-1 20:1 31:1 32:1 34:1 35:2 38:1 40:1 46:2 48:1 #-1
-0.0094516485469133826313736790325493 7:1 16:-1 31:1 33:1 40:1 48:1 51:1 #-1
-3.8543784724595973045779828680679 4:1 14:-1 27:1 30:1 37:1 38:1 51:1 #-1
2.5540316777504337153459346154705 7:-1 22:1 27:1 32:1 33:1 38:1 39:1 44:3 46:2 #1
-2.6956635545472438231229261873523 9:1 20:-1 27:2 32:1 33:1 35:1 39:1 44:3 46:3 48:2 51:1 #-1
-2.4700128262510760990267044689972 19:1 20:-1 27:2 32:1 33:1 35:1 39:1 44:3 46:3 48:2 51:1 #-1
-1.7066284840572294445593115597148 9:1 12:-1 31:1 32:1 34:1 37:2 38:2 39:1 45:1 46:1 #-1
-2.1838597589367032547613689530408 4:1 5:-1 27:1 31:1 37:2 45:1 48:1 #-1
-1.6972977685544317072441344862455 6:-1 22:1 30:1 34:1 35:1 37:1 38:2 39:1 45:2 48:1 #-1
7.7515799576868804621199160465039 20:-1 22:1 27:2 32:1 33:1 35:1 39:1 44:3 46:3 48:2 51:1 #1
-1.5200035213816875945269657677272 19:1 20:-1 27:2 32:1 33:1 35:1 39:1 44:3 46:3 48:2 51:1 #-1
-1.7477923581405985231640443089418 3:1 20:-1 27:2 32:1 33:1 35:1 39:1 44:3 46:3 48:2 51:1 #-1
-0.78195265923753498604753531253664 1:1 20:-1 27:2 32:1 33:1 35:1 39:1 44:3 46:3 48:2 51:1 #-1
3.1890631084898295455332117853686 1:1 14:-1 27:2 37:1 38:1 45:2 #1
-2.0064799646529873911049435264431 6:1 25:-1 27:1 32:1 33:1 35:1 37:1 38:1 40:3 44:1 45:2 46:1 #-1
3.0327037362088309357943671784597 1:1 22:-1 27:2 40:1 44:2 49:2 #1
-1.2075918773831886277037028776249 1:1 22:-1 27:2 29:1 30:1 33:1 37:1 44:2 48:1 49:2 #-1
-5 1:1 22:-1 29:1 30:1 31:2 35:2 38:2 43:2 44:2 48:1 49:3 #-1
-1.4939553418749278446142625398352 1:1 19:-1 27:1 29:1 30:1 31:1 32:1 37:1 51:1 #-1
2.7154939078509801042571325524477 12:1 22:-1 29:1 30:1 31:2 35:2 38:2 43:2 44:2 48:1 49:3 #1
-1.4960223165264163736054570108536 1:1 22:-1 31:1 33:1 35:1 38:1 43:2 44:1 45:1 49:3 51:1 #-1
-0.63305124594391914971680535018095 12:-1 22:1 27:1 33:3 34:1 35:1 38:1 46:2 48:4 49:1 #-1
-0.30731106518509004876804624473152 9:1 12:-1 27:1 33:3 34:1 35:1 38:1 46:2 48:4 49:1 #-1
2.0454080376534946594802022445947 1:1 7:-1 27:3 31:1 33:1 37:1 42:1 48:2 51:2 #1
-1.0190330349789391561898810323328 1:1 4:-1 27:2 29:2 32:1 34:1 35:1 37:1 40:1 48:1 #-1
-1.0778868358659492443507588177454 7:-1 18:1 27:2 38:1 40:1 43:1 48:2 49:1 #-1
-0.45191616596043104880919827337493 4:-1 14:1 27:1 30:1 35:2 40:1 44:2 51:1 #-1
-2.6682491065998088508592900325311 1:1 19:-1 31:1 32:1 34:1 35:2 38:1 40:1 46:2 48:1 #-1
-1.5629790652877959544753139198292 18:1 25:-1 33:1 37:1 38:1 42:1 44:1 45:3 48:1 #-1
-5 7:-1 22:1 30:1 33:1 40:1 45:1 #-1
-2.0669282629790632910271597211249 1:-1 22:1 29:1 32:1 35:1 38:1 39:2 40:1 44:2 46:1 48:2 #-1
2.0292176469168383690089285664726 1:1 8:-1 32:1 34:2 35:1 38:1 42:1 43:1 44:1 45:1 48:1 #1
-0.94118311664312481745753302675439 1:1 12:-1 27:1 31:1 34:1 35:2 38:2 46:2 51:1 #-1
-1.7142023784115794082794081987231 1:1 19:-1 34:3 38:1 42:1 44:1 48:1 #-1
6.1824097922492340373423758137506 7:-1 18:1 30:1 33:1 40:1 45:1 #1
4.9317809450402059212592575931922 1:-1 4:1 27:1 31:1 37:1 38:1 40:1 45:3 46:1 #1
2.5729537343380237679468791611725 1:-1 22:1 27:1 31:1 37:1 38:1 40:1 45:3 46:1 #1
-5 1:-1 19:1 27:1 31:1 37:1 38:1 40:1 45:3 46:1 #-1
-3.5365899117214398827968580008019 7:-1 17:1 30:1 31:1 33:1 45:1 48:1 #-1
-1.7909117116159583016354872597731 1:-1 18:1 27:1 31:1 33:1 38:1 43:1 45:1 #-1
-0.96235036661058859230877260415582 9:-1 22:1 27:1 35:2 37:1 38:2 43:1 48:2 #-1
0.66908648361927403058757590770256 1:-1 16:1 29:1 30:1 38:1 44:2 48:1 #1
-1.9574201815826510753026923339348 1:1 20:-1 32:2 35:1 43:1 44:1 51:1 #-1
2.3389378906053801543407644203398 3:1 17:-1 27:1 33:1 34:1 35:1 42:1 45:2 48:1 51:1 #1
-2.0027154460162939209055821265792 12:-1 17:1 27:3 31:1 33:1 35:1 43:1 48:1 49:1 #-1
1.3017096425682632698794805037323 4:-1 22:1 27:1 29:1 30:1 31:2 38:1 40:1 44:2 #1
-4.9033899166706023109441048291046 1:1 17:-1 37:1 38:1 39:1 43:1 44:2 #-1
-1.9447943033095056453163351761759 4:-1 8:1 31:1 33:1 38:1 43:1 44:2 46:1 #-1
-2.1977081288527977598334928188706 13:-1 22:1 29:1 42:1 48:1 51:1 #-1
2.1468835503374119610953130177222 8:-1 12:1 31:2 34:1 37:1 38:1 39:1 43:1 44:1 45:1 #1
-4.6874071742257070738446600444149 5:-1 7:1 27:1 31:1 32:1 34:2 35:3 45:1 #-1
-2.2278488657191490851516846305458 4:1 20:-1 27:1 30:1 31:1 33:2 35:2 37:1 45:1 51:1 #-1
-1.3702410440184578099831469444325 1:1 17:-1 27:2 30:1 33:2 34:1 35:1 37:3 38:1 45:1 46:2 48:1 49:1 51:2 #-1
-1.6432760119533034171013241575565 5:-1 20:1 33:1 40:1 51:1 #-1
-5 5:1 17:-1 33:2 42:1 48:1 #-1
-1.9196517514679927174370277498383 8:-1 17:1 31:2 32:2 37:1 38:2 42:1 45:1 46:1 #-1
-1.4630869801945038943813415244222 9:-1 22:1 33:1 40:2 42:1 46:1 48:2 51:2 #-1
-0.32775866870503322925145539556979 11:-1 18:1 27:1 32:1 33:1 34:1 35:1 43:1 45:1 46:2 48:1 49:1 51:2 #-1
-2.392315092644966334489708970068 1:1 6:-1 32:2 33:2 34:1 37:1 40:1 48:1 49:1 #-1
-1.5256954020787822923210796943749 1:1 22:-1 27:2 30:1 33:1 38:2 40:1 42:1 49:1 #-1
-0.59828461143002620303832372883335 12:-1 22:1 27:1 29:1 30:1 31:1 34:2 35:1 45:1 46:1 #-1
0.60385706807938199780494414881105 12:1 17:-1 32:1 33:1 35:1 39:1 44:1 45:1 48:2 #1
-3.6116497742011790528238179831533 1:1 13:-1 31:1 32:2 33:2 39:1 43:1 48:2 49:1 #-1
2.3058968636757040115980998962186 1:1 7:-1 27:3 30:1 37:1 39:1 40:1 43:1 #1
-1.1271805888366643877418482588837 12:1 13:-1 27:1 32:3 33:1 35:1 38:2 39:1 40:1 43:1 48:3 49:1 #-1
-1.103684656153183230031800121651 11:1 14:-1 30:1 33:1 38:2 44:1 45:1 51:2 #-1
-2.0986218534090941290060072788037 1:1 20:-1 27:1 30:1 32:1 33:1 35:2 40:2 48:1 #-1
-0.2445716864913779486911948879424 8:1 20:-1 27:1 30:1 32:1 33:1 35:2 40:2 48:1 #-1
-4.5206321670567355397452047327533 1:1 11:-1 27:1 30:1 31:1 33:1 35:1 38:1 45:1 #-1
-1.2002473754475959655252381708124 11:-1 14:1 30:2 38:1 #-1
-4.2922956247503281090871496417094 19:-1 22:1 27:2 29:1 35:3 38:1 40:1 46:1 48:1 #-1
-1.5310639072759655299194037070265 1:1 4:-1 31:1 32:1 34:1 37:2 38:1 44:1 45:1 #-1
-0.45133150945924044306067912657454 1:1 4:-1 31:1 32:2 37:2 44:1 #-1
-1.0979976762474223939136663830141 1:1 18:-1 31:1 32:2 37:1 40:2 #-1
-0.60710586666668486799380843876861 1:1 25:-1 32:1 33:1 37:1 42:3 44:1 46:1 51:1 #-1
-1.8102884348653365265136017114855 17:-1 19:1 27:2 31:1 33:1 37:1 38:1 45:1 49:1 #-1
-0.036951474200052625285195517790271 1:1 9:-1 27:2 30:1 31:1 32:1 33:1 37:1 38:2 40:1 42:1 45:1 48:3 #-1
-0.30851743581801865934366446708736 1:1 5:-1 33:2 37:2 38:1 43:1 44:1 48:2 #-1
-0.73070933146295569127204316828283 20:-1 22:1 30:1 32:1 37:1 43:1 46:3 51:1 #-1
-1.0283069520860459444833168163314 9:1 20:-1 30:1 33:1 46:2 48:1 49:1 #-1
0.97607907654131631502991695015226 6:1 14:-1 27:3 31:1 37:1 38:1 39:1 40:1 45:1 48:1 #1
-2.9849895236087258254542575741652 11:1 18:-1 27:1 31:1 33:1 35:1 38:1 40:1 44:1 #-1
-1.8301560965054428642417860828573 11:-1 18:1 31:1 32:1 33:1 38:1 40:1 42:1 43:1 51:1 #-1
-1.3956310993750127291690432684845 7:1 14:-1 29:1 30:1 33:1 37:2 40:1 48:1 #-1
-1.1965054820920617562052257198957 13:1 18:-1 30:1 33:2 37:1 38:1 42:1 45:3 46:1 49:1 #-1
1.0378024090591588812770851291134 19:1 20:-1 27:1 32:1 34:1 35:1 #1
-0.795774923615400364695915413904 1:1 22:-1 27:2 29:1 30:1 33:1 44:2 46:2 49:1 #-1
0.29159161125486221521896368358284 4:-1 8:1 27:1 29:1 30:1 31:2 38:1 40:1 44:2 #1
-1.4952192099208629905149336991599 4:-1 16:1 27:2 30:1 40:1 43:1 44:1 48:2 #-1
-1.451259502213123386837878570077 4:-1 14:1 27:1 38:1 44:2 45:1 48:1 #-1
-1.4406613600929665253147504699882 5:1 18:-1 38:2 39:1 40:1 43:2 45:1 46:1 #-1
-0.79632837276202328435914523652173 12:-1 18:1 27:1 30:1 37:1 38:6 42:1 46:2 48:1 #-1
-0.63656004356970907753776600657147 1:1 18:-1 38:2 39:1 40:1 43:2 45:1 46:1 #-1
2.5584437388558698422968973318348 7:-1 14:1 27:1 48:1 #1
-1.3340818060415453594202972453786 17:1 18:-1 33:1 40:1 45:1 48:1 51:2 #-1
-0.077035010112862511988396363449283 1:1 4:-1 27:1 30:1 32:1 33:1 44:1 46:1 48:1 #-1
-0.88507497915532207244382334465627 4:1 12:-1 27:3 32:2 35:1 37:1 39:1 40:1 45:2 48:1 49:1 51:1 #-1
-1.6404974392478313127696765150176 1:1 9:-1 27:2 30:1 31:1 32:1 33:1 37:1 38:2 40:1 42:1 45:1 48:3 #-1
-1.5501320593072400733092308655614 3:1 7:-1 27:2 30:1 31:1 33:1 38:1 40:1 48:2 51:1 #-1
-1.1972476068536910265294181954232 4:1 11:-1 27:3 30:1 33:1 34:1 38:3 39:1 44:1 #-1
-2.2437331023347502068077119474765 12:1 13:-1 29:1 42:1 48:1 51:1 #-1
-1.4791759002888089646887692651944 5:1 11:-1 27:1 29:2 32:1 33:1 34:1 37:1 40:1 46:1 48:1 #-1
-1.3368791466502278897365840748535 1:1 17:-1 30:1 34:1 37:1 46:2 51:1 #-1
-0.99504898826325660632363678814727 13:-1 20:1 27:2 33:1 40:3 44:1 48:1 49:3 51:1 #-1
-0.77283405570793672900720139296027 9:1 22:-1 27:1 32:1 35:2 37:1 38:3 39:1 42:1 51:1 #-1
-1.3719167619790602064000495374785 5:-1 17:1 27:2 35:1 37:1 38:1 43:1 45:1 46:1 51:1 #-1
-1.4899030229575913608641712926328 1:1 19:-1 30:1 33:1 44:1 45:1 46:1 49:1 51:1 #-1
-0.2991688000885867060318901167193 3:-1 9:1 31:1 35:2 37:1 38:2 43:2 48:4 51:1 #-1
-0.6391892396653775509918204988935 6:-1 12:1 27:1 30:2 33:1 35:3 37:1 40:2 44:1 46:3 48:1 #-1
-1.8194345841458623436182051591459 1:1 8:-1 27:1 29:1 38:1 40:1 49:1 #-1
0.88523430704659133994027797598392 1:-1 22:1 27:2 29:1 32:2 33:1 35:1 37:1 38:1 46:2 51:1 #1
-0.6207115969346660433458851002797 9:-1 22:1 27:1 31:1 32:2 33:1 38:3 40:1 43:1 45:2 46:1 51:1 #-1
-0.13667486690351460243419978723978 9:-1 13:1 27:1 31:1 32:2 33:1 38:3 40:1 43:1 45:2 46:1 51:1 #-1
1.5638220223300465239191225919058 1:1 14:-1 29:1 43:1 44:1 #1
-4.0219068173670766697114231646992 4:-1 5:1 27:1 37:2 46:1 #-1
-0.39183890287647377137503212907177 6:1 25:-1 31:2 32:1 34:2 37:1 40:1 42:2 48:2 49:1 51:2 #-1
-2.086682839450104687273324088892 20:-1 22:1 31:1 37:1 38:1 42:1 44:1 48:1 49:1 #-1
-0.39448905224506081168556193006225 9:1 13:-1 27:1 29:1 31:2 32:2 34:1 38:1 40:2 48:2 #-1
-1.233498660463100193851460062433 1:1 13:-1 27:1 29:1 31:2 32:2 34:1 38:1 40:2 48:2 #-1
-1.0906453955956398882420899099088 1:1 3:-1 27:2 29:1 35:2 37:2 40:1 45:1 46:1 48:1 49:1 #-1
-0.64528187631488975739557645283639 3:-1 19:1 29:2 33:2 34:1 39:2 40:2 45:2 #-1
-0.61104896985611623083656240851269 5:-1 11:1 29:1 32:3 34:1 45:1 51:1 #-1
-2.4541454968384091017696846392937 7:1 11:-1 27:1 31:2 35:1 37:1 38:1 43:1 48:1 #-1
2.0734457307780829182775050867349 1:-1 22:1 27:1 29:2 31:1 32:1 37:1 39:1 40:1 48:1 49:2 #1
-0.68292801820566495507591753266752 1:-1 11:1 27:1 31:1 35:1 37:1 38:3 40:1 45:2 46:1 51:1 #-1
-0.61442922708496172656822409408051 23:-1 25:1 27:2 30:1 31:1 32:1 33:1 35:1 38:1 42:2 43:1 44:1 48:2 51:3 #-1
-1.3360891862824690878852607056615 1:1 4:-1 35:1 37:2 38:1 42:1 43:1 48:1 49:1 #-1
-2.541519998222113496666452192585 8:1 11:-1 27:2 37:1 38:1 40:1 42:1 48:1 #-1
-0.63334223894972707658013177933753 1:1 12:-1 27:2 30:1 31:2 32:1 34:1 35:3 37:1 40:1 43:1 #-1
-0.26080034385616990277867444092408 11:-1 13:1 30:1 31:2 38:1 46:1 48:1 49:1 #-1
-1.5859015218908780742168573851814 16:1 20:-1 27:1 30:1 32:1 33:1 35:2 40:2 48:1 #-1
-1.4150888631548679263971735053929 1:1 9:-1 27:3 30:1 32:1 37:2 38:3 44:1 51:1 #-1
-2.2030084145409252194269811298 1:1 16:-1 31:1 38:1 42:1 51:1 #-1
-1.5767652624565335894857298626448 1:1 14:-1 31:1 32:1 33:1 37:1 38:1 44:1 45:1 49:1 #-1
-0.90232692226827304615710545476759 18:-1 19:1 31:1 33:1 34:1 35:1 39:1 40:1 42:1 43:1 44:1 45:1 51:1 #-1
-0.70087701427138549004070000592037 1:-1 23:1 27:2 33:1 43:2 45:1 46:1 51:1 #-1
5.2871330464100720902820285118651 1:1 14:-1 32:1 38:1 39:1 40:1 44:1 45:1 46:1 #1
-0.9477340802629675708956824564666 3:1 22:-1 32:1 34:1 35:1 38:3 44:1 45:1 46:1 48:2 #-1
-1.8159262384293799463819141237764 1:1 4:-1 27:1 29:1 31:1 32:1 37:1 39:1 44:1 45:1 46:1 #-1
1.4114620474343244627135618429747 4:1 14:-1 27:1 30:1 33:2 39:1 40:1 #1
0.58715287107349434236880370008294 5:-1 22:1 34:1 35:1 37:1 38:1 45:1 46:1 48:1 49:2 #1
-1.870487685722512338770684436895 7:-1 19:1 30:1 37:1 40:1 42:1 43:1 44:1 #-1
-1.0638820702349187641289063321892 6:1 9:-1 29:1 31:1 32:1 35:1 38:1 39:1 40:2 48:1 #-1
-1.0814820389017121282648759006406 9:-1 22:1 30:1 33:2 35:1 38:1 39:1 40:1 44:1 45:1 48:1 49:1 51:1 #-1
-0.98777834209987669389363418304129 1:1 22:-1 27:4 29:1 30:1 32:1 35:1 37:1 38:2 39:1 #-1
-0.40877682254990688193174719344825 9:-1 20:1 29:1 31:1 32:1 35:1 38:1 39:1 40:2 48:1 #-1
-0.86232191849827710683484838227741 6:-1 25:1 27:1 31:1 32:1 33:1 35:2 37:1 38:1 40:1 44:1 45:1 46:1 48:1 #-1
-0.10114624571774982753069593854889 6:1 12:-1 27:1 30:1 32:2 33:1 38:1 40:1 43:1 44:3 46:1 #-1
6.2024492373334965122921857982874 1:1 13:-1 29:1 42:1 48:1 51:1 #1
-0.97233939836572846893147925584344 7:-1 14:1 30:1 40:1 44:1 45:1 46:3 #-1
-0.51878142973322893816146006429335 9:-1 22:1 27:2 29:2 30:1 32:1 38:1 40:1 43:1 45:1 46:1 49:2 51:1 #-1
-1.4985592154211730964163962198654 7:1 13:-1 29:1 42:1 48:1 51:1 #-1
-1.1209706617393779826130639776238 1:1 22:-1 27:1 33:2 37:1 40:1 45:1 49:1 #-1
-0.97507158642078906041206209920347 1:1 7:-1 35:2 43:2 44:1 46:1 48:1 49:2 51:1 #-1
-1.7226180336478722487925097084371 1:1 9:-1 35:1 38:2 43:1 44:2 48:2 #-1
-1.1348393512861294496474329207558 1:1 22:-1 31:2 42:2 44:1 48:1 49:1 #-1
-0.25527789169714742989469868916785 17:1 20:-1 27:1 30:1 32:1 33:1 35:2 40:2 48:1 #-1
-0.64206007473995296841451363434317 1:1 17:-1 27:1 29:1 32:2 38:1 40:1 44:1 46:1 51:1 #-1
-1.0145656409909746820119380572578 1:1 14:-1 30:2 32:1 35:1 40:2 46:2 51:1 #-1
0.64863184052846389882063249388011 12:1 17:-1 33:1 35:1 43:2 44:1 46:1 48:1 49:1 51:1 #1
-1.4682235434997028544756858536857 19:1 25:-1 34:1 37:1 38:1 43:1 46:1 51:1 #-1
-0.70221591603882593801699840696529 1:1 17:-1 37:1 38:2 39:1 42:1 43:1 44:1 45:1 48:1 #-1
-0.45628952084640794772951721824938 6:-1 22:1 27:1 30:1 31:1 35:1 38:2 40:1 42:1 44:1 46:1 48:3 #-1
-0.67876393093736286932227130819228 12:-1 22:1 32:1 35:1 38:1 42:1 44:1 46:1 48:4 #-1
-1.2024585774022551465378683133167 5:1 11:-1 27:1 38:1 40:1 45:1 48:1 #-1
-1.0219550071855243444929328688886 6:-1 22:1 27:1 33:1 35:1 38:4 39:1 44:2 46:3 48:1 49:1 #-1
0.75171275410887372636636882816674 12:1 17:-1 27:2 33:1 35:1 37:1 40:1 43:1 46:2 #1
-0.41858124638864135924620768491877 12:1 13:-1 29:4 32:2 34:1 35:1 37:2 40:2 45:1 46:1 51:1 #-1
-0.8554121668020165936141552265326 6:1 25:-1 27:1 30:1 33:1 34:1 35:1 37:1 38:2 42:1 43:1 46:1 48:1 51:1 #-1
-0.78165023832515545532118039773195 1:1 18:-1 29:2 30:1 33:2 42:1 51:1 #-1
-0.43428204542638038088142593551311 1:1 20:-1 29:3 30:1 32:2 33:1 39:1 42:1 44:1 #-1
-0.7557057583198822925396598293446 1:1 18:-1 27:1 35:2 37:1 48:1 51:1 #-1
-1.3866019907352409301637408134411 13:1 17:-1 32:1 33:1 39:2 40:1 44:1 46:1 48:1 49:1 #-1
5.5048196987135016300385359500069 1:1 11:-1 27:1 31:2 35:1 37:1 38:1 43:1 48:1 #1
-0.34533015835456165598671418592858 9:1 20:-1 30:1 33:1 46:2 48:1 49:1 #-1
-0.73052546661236439362596684077289 6:-1 9:1 27:1 33:1 35:1 38:4 39:1 44:2 46:3 48:1 49:1 #-1
-0.32482932397604047380923475429881 5:-1 14:1 32:1 35:1 38:2 40:1 43:2 44:1 46:3 #-1
-0.75612014788778991736251100519439 1:1 22:-1 27:1 30:1 34:3 35:3 38:1 44:1 45:1 #-1
-0.4700557100708289137713791205897 9:-1 13:1 27:1 33:1 35:1 37:1 38:3 40:1 44:2 48:2 51:1 #-1
-0.73858985044979996725800219792291 9:1 22:-1 27:2 31:1 35:2 37:1 38:1 45:2 46:1 49:1 #-1
-0.6102528039182038011034592273063 20:1 22:-1 27:1 33:2 37:1 40:1 45:1 49:1 #-1
-0.44985580670093705535350636637304 8:1 18:-1 29:3 30:1 31:1 34:2 38:1 39:1 42:2 43:1 44:2 #-1
-0.3197630011754744039365050412016 23:-1 25:1 30:1 34:1 35:1 37:1 38:2 43:1 45:2 51:1 #-1
-0.64866927956445508129945665132254 4:-1 7:1 31:1 32:1 33:1 37:1 38:2 40:2 42:1 44:1 46:1 51:1 #-1
-0.77081446228596450787051708175568 4:-1 14:1 31:1 32:1 33:2 35:2 37:1 44:1 46:1 49:1 #-1
-0.33960981907587983741336756793316 8:1 11:-1 30:1 32:1 33:1 35:1 38:1 39:1 45:2 48:1 #-1
-0.4278847158465167166419007571676 11:-1 14:1 27:1 30:2 31:1 35:1 37:2 38:1 40:1 43:1 48:2 #-1
-0.58180170508071327173382769615273 7:1 20:-1 27:2 30:1 32:1 33:1 37:2 38:1 39:1 45:1 48:3 #-1
-0.31281435186936512593547377036884 9:-1 22:1 29:1 31:1 37:1 38:4 40:1 43:1 46:1 48:1 51:1 #-1
-1.3345310334004079066971826250665 1:1 11:-1 27:1 30:1 31:1 33:1 35:1 38:1 45:1 #-1
-0.069690297888224284061919888699776 1:1 5:-1 33:1 39:1 44:3 46:1 51:1 #-1
-2.1047264392553124423557164845988 1:1 5:-1 27:2 33:1 38:1 39:2 40:2 43:1 44:1 45:1 48:1 51:1 #-1
0.21571155097475969153464347982663 5:-1 12:1 32:1 33:1 38:1 39:1 45:1 48:2 #1
-0.39636939992551822875554989877855 14:-1 19:1 31:1 32:2 33:1 40:1 51:2 #-1
1.7967121069679128364526832228876 12:1 13:-1 27:1 29:1 31:2 32:2 34:1 38:1 40:2 48:2 #1
-0.3024935318376676951501735857164 6:1 25:-1 27:1 29:4 31:1 37:2 39:1 40:1 42:1 44:1 45:1 46:3 48:1 #-1
-0.26090309151589319291986157622887 6:1 25:-1 27:1 31:1 32:2 37:1 40:2 42:1 45:2 48:2 51:2 #-1
-0.58841592077655668902025354327634 9:-1 22:1 27:1 33:1 35:1 38:1 40:1 43:1 44:1 48:1 49:3 #-1
-1.9851130044551361653049070810084 1:1 7:-1 27:1 30:1 31:1 33:1 35:1 38:1 44:1 46:1 51:1 #-1
0.0046454228108094852700560295488685 1:1 14:-1 27:2 37:1 38:1 45:2 #1
-0.33892162527832159213403429021128 7:1 25:-1 27:2 29:1 32:1 33:2 35:1 40:1 44:3 46:1 48:1 51:1 #-1
-2.1571974600809245004029435222037 4:-1 19:1 27:1 30:1 32:1 33:1 44:1 46:1 48:1 #-1
-0.44849753137947534487040002204594 1:1 22:-1 27:1 30:1 31:2 35:1 37:2 38:2 43:1 49:1 #-1
-0.39230472383870679253803359642916 20:1 22:-1 27:1 30:2 32:1 33:1 35:3 38:2 40:1 42:1 46:1 51:2 #-1
-0.28232656243536041751340803784842 1:1 9:-1 27:1 31:1 32:2 33:3 34:1 35:1 38:2 44:1 #-1
-0.33976317475932610312483461711963 1:1 11:-1 27:1 30:2 32:1 37:1 39:1 46:3 51:2 #-1
-0.044684540415271228885885079762375 4:-1 16:1 27:2 30:1 40:1 43:1 44:1 48:2 #-1
-0.28209238770060596213085091221728 6:1 25:-1 34:1 37:1 38:1 43:1 46:1 51:1 #-1
-0.4025587628550964525153688100545 19:1 25:-1 27:1 30:1 31:2 34:1 35:1 38:3 39:1 40:2 46:1 48:1 51:1 #-1
-0.24243686629179014846435791241674 9:-1 22:1 27:2 30:2 32:1 35:1 38:3 40:1 43:1 46:2 48:1 #-1
-0.76916853663349105119095838745125 1:1 9:-1 35:1 38:2 43:1 44:2 48:2 #-1
-0.17984519103858140343099591973441 1:1 6:-1 27:5 30:1 31:2 34:1 35:1 37:3 39:1 43:1 46:1 51:2 #-1
-0.3797862728749838989728004889912 20:1 22:-1 30:1 37:2 38:4 42:1 43:1 45:1 51:1 #-1
-0.94206952374846897324545125229633 20:-1 22:1 30:1 31:1 35:1 37:1 38:3 40:1 43:1 44:1 #-1
-0.066490121046553121719746570761345 6:1 25:-1 27:1 32:1 33:1 35:1 37:2 38:1 39:1 40:1 44:1 45:1 46:1 48:1 51:1 #-1
-0.29854279628684565750518231652677 1:1 7:-1 27:1 30:2 33:1 34:1 43:1 44:1 48:1 #-1
-0.0871533907515229522289246233413 1:1 20:-1 27:1 32:1 33:1 38:1 40:1 44:1 45:1 #-1
-0.36275135180002954227163058931183 1:1 5:-1 29:1 30:1 32:1 37:1 38:1 40:1 42:2 44:1 #-1
-0.28116120706559138975322298392712 1:1 19:-1 29:1 30:2 45:2 48:1 51:1 #-1
-0.22861642810350701893185032531619 4:-1 14:1 33:1 37:1 38:1 40:1 42:1 48:3 51:1 #-1
-0.19075554557568891178576109268761 7:1 14:-1 29:2 31:1 32:4 37:1 40:1 42:1 44:1 51:2 #-1
0.69890208337098513879936945158988 1:1 5:-1 27:2 30:1 39:1 40:1 44:1 48:1 49:1 #1
-0.21506153591173415851045547242393 7:1 14:-1 29:1 30:1 33:1 37:2 40:1 48:1 #-1
-0.10270801733643561415298961492226 1:1 4:-1 27:1 29:1 33:1 35:2 40:1 42:2 44:1 46:2 48:1 49:1 51:1 #-1
-0.31125717148273546186487692466471 3:-1 12:1 31:1 35:2 37:1 38:2 43:2 48:4 51:1 #-1
-0.1089856900123566951776865607826 12:-1 13:1 27:1 32:1 38:3 39:1 40:1 43:1 44:1 45:1 46:1 48:2 #-1
-0.30069431232639193263267429756525 7:1 9:-1 27:1 30:1 37:3 46:2 48:1 #-1
-0.28156126869085951192062111658743 8:1 20:-1 30:1 31:1 35:1 37:1 38:1 40:2 #-1
-0.14770547472076311912303481221898 6:-1 12:1 30:1 33:1 35:2 38:2 39:1 42:1 43:1 44:1 46:1 48:2 #-1
0.72232062253024409415047557558864 1:1 19:-1 27:2 30:1 31:1 37:2 38:1 40:1 #1
-0.43456883657888406569114181365876 3:1 22:-1 33:2 37:1 39:1 43:1 45:1 #-1
-0.094333097733576232180041643005097 9:-1 22:1 27:2 31:1 33:1 35:1 37:2 38:2 40:1 45:1 46:1 51:1 #-1
-0.23974052411639798498832476525422 9:-1 22:1 29:1 31:1 32:1 35:1 38:1 39:1 40:2 48:1 #-1
-0.18263060571073785887108442693716 1:1 4:-1 27:1 30:1 32:1 37:1 38:1 40:1 48:2 #-1
-0.31277710995178048536402570789505 14:1 20:-1 27:1 30:1 31:1 35:1 37:1 38:1 #-1
-0.21723965362621111552243746700697 13:-1 22:1 27:1 29:1 31:2 32:2 34:1 38:1 40:2 48:2 #-1
-0.526306513503087769478838708892 9:-1 13:1 29:1 31:1 37:1 38:4 40:1 43:1 46:1 48:1 51:1 #-1
-0.10853192083601720385743760743935 5:1 17:-1 32:1 33:1 39:2 40:1 44:1 46:1 48:1 49:1 #-1
-0.27057503425057671808673376290244 4:1 14:-1 27:1 30:1 33:2 37:1 38:1 48:2 49:1 #-1
-0.067216690019335278982737236219691 12:-1 22:1 31:1 32:2 35:2 38:2 44:2 45:1 46:1 49:1 51:3 #-1
-0.15616491828061535018790095818986 1:1 6:-1 27:1 30:1 31:2 32:1 34:1 37:1 38:2 44:1 48:1 51:1 #-1
-0.084076321789861907518570660613477 1:1 22:-1 27:1 30:1 31:2 35:1 37:2 38:2 43:1 49:1 #-1
0.22929178851426301743998692472815 9:-1 22:1 35:1 38:2 43:1 44:2 48:2 #1
-0.15872517670232205722058438368549 9:-1 22:1 29:1 31:1 32:1 35:1 38:1 39:1 40:2 48:1 #-1
-0.06149763837644245390023911568278 9:-1 13:1 29:1 31:1 32:1 35:1 38:1 39:1 40:2 48:1 #-1
-0.10703902248924396234386335891031 4:1 14:-1 31:1 32:2 33:1 40:1 51:2 #-1
-0.30306597338848695333268778995262 7:-1 11:1 27:2 38:1 40:1 43:1 48:2 49:1 #-1
0.19120473731096510050520009826869 4:-1 17:1 27:1 29:1 30:1 31:2 38:1 40:1 44:2 #1
-0.038146187420080523988730192286312 12:1 13:-1 27:1 32:3 33:1 35:1 38:2 39:1 40:1 43:1 48:3 49:1 #-1
-0.029466810058866116373010868301208 5:-1 11:1 27:2 29:1 30:1 31:1 38:1 44:2 #-1
-0.025992438501169824044412237640245 4:1 9:-1 29:1 31:1 32:1 35:1 38:1 39:1 40:2 48:1 #-1
-0.022709990622399034432277176165371 1:1 22:-1 31:2 32:1 33:1 35:1 38:2 40:1 46:2 48:1 49:1 #-1
0.064979607979982145771202795003774 4:1 19:-1 27:2 38:1 40:1 42:1 45:1 46:1 51:1 #1
-0.030601193234763623962635392672382 6:1 9:-1 29:1 31:1 32:1 35:1 38:1 39:1 40:2 48:1 #-1
-0.012496050390706420207820315226854 13:1 22:-1 27:1 31:1 32:1 33:1 35:2 38:2 39:2 40:1 43:1 48:1 #-1
-0.01104092736106876415647093381267 6:-1 13:1 27:1 33:1 35:1 38:4 39:1 44:2 46:3 48:1 49:1 #-1
-0.012523982007141012950945935244818 4:1 7:-1 32:1 44:2 46:4 48:1 #-1
-0.016476800316652384648108409237466 5:1 17:-1 32:1 33:1 39:2 40:1 44:1 46:1 48:1 49:1 #-1
0.00075881529195503949480894334556069 3:-1 20:1 30:1 33:1 35:2 38:1 40:2 44:1 48:1 #1
-0.0058120664973995914137638862939639 4:-1 14:1 27:2 29:2 32:1 34:1 35:1 37:1 40:1 48:1 #-1
-0.0077327242362880410642134165755124 4:-1 14:1 31:1 32:1 33:2 35:2 37:1 44:1 46:1 49:1 #-1
-0.0087461517303723985972130350319276 13:1 18:-1 30:1 33:2 37:1 38:1 42:1 45:3 46:1 49:1 #-1
-0.0047558776951159842383276554755867 5:1 12:-1 31:1 37:1 43:1 44:1 45:1 48:2 #-1
-0.0013606448343534971456847415538505 4:1 12:-1 27:3 32:2 35:1 37:1 39:1 40:1 45:2 48:1 49:1 51:1 #-1
-0.00064943831010011443538587627699599 1:1 14:-1 27:2 32:1 33:1 37:1 38:1 43:1 51:1 #-1
