SVM-light Version V6.02
2 # kernel type
3 # kernel parameter -d 
0.1 # kernel parameter -g 
1 # kernel parameter -s 
1 # kernel parameter -r 
empty# kernel parameter -u 
181 # highest feature index 
1379 # number of training documents 
773 # number of support vectors plus 1 
0.43545619 # threshold b, each following line is a SV (starting with alpha*y)
-0.81441046374733927 25:1 51:1 57:1 94:1 113:1 142:1 179:-1 181:1 #-1 #1RN1A
-0.46005089705147995 12:1 40:1 55:1 90:1 122:1 134:1 168:1 176:-1 #-1 #1IOBA
-0.4587446365815957 18:1 39:1 64:1 95:1 115:1 148:1 157:1 173:-1 #-1 #2LZMA
-1.500028422159055 9:1 44:1 65:1 90:1 113:1 137:1 165:1 178:-1 #-1 #2AKYA
-4.5784253004392905 11:1 39:1 57:1 96:1 110:1 152:1 167:-1 174:1 #-1 #1IOBA
5 11:1 39:1 57:1 96:1 110:1 152:1 167:-1 178:1 #1 #1IOBA
3.7785613562178382 19:1 38:1 66:1 95:1 116:1 133:1 161:-1 162:1 #1 #1VQBA
2.1033166871554307 19:1 38:1 66:1 95:1 116:1 133:1 161:-1 169:1 #1 #1VQBA
5 19:1 45:1 58:1 100:1 111:1 147:1 167:-1 169:1 #1 #1VQBA
5 25:1 38:1 69:1 103:1 112:1 141:1 174:1 176:-1 #1 #1BNIA
-2.4952516362447832 25:1 38:1 69:1 103:1 112:1 141:1 175:1 176:-1 #-1 #1BNIA
-5 25:1 38:1 69:1 103:1 112:1 141:1 174:1 176:-1 #-1 #1BNIA
-1.5446615622708459 25:1 38:1 69:1 103:1 112:1 141:1 163:1 176:-1 #-1 #1BNIA
3.5058985232634701 20:1 51:1 60:1 90:1 120:1 134:1 167:-1 174:1 #1 #1BNIA
5 12:1 37:1 57:1 81:1 109:1 152:1 164:-1 174:1 #1 #2RN2A
2.4562822557530248 20:1 32:1 72:1 87:1 122:1 167:-1 174:1 #1 #1BNIA
-5 12:1 37:1 57:1 81:1 109:1 152:1 160:1 164:-1 #-1 #2RN2A
-5 12:1 37:1 57:1 81:1 109:1 152:1 164:-1 174:1 #-1 #2RN2A
-5 19:1 45:1 58:1 100:1 111:1 147:1 164:1 167:-1 #-1 #1VQBA
1.3293984434991288 23:1 48:1 55:1 79:1 110:1 138:1 165:1 176:-1 #1 #1HFYA
1.8854214543421304 8:1 31:1 69:1 90:1 122:1 141:1 164:-1 168:1 #1 #1STNA
-5 19:1 38:1 66:1 95:1 116:1 133:1 161:-1 170:1 #-1 #1VQBA
-2.4149551869982231 14:1 38:1 72:1 83:1 127:1 167:-1 169:1 #-1 #2CI2I
-1.3806266396864486 20:1 27:1 69:1 79:1 111:1 155:1 157:-1 169:1 #-1 #1RN1A
5 12:1 37:1 57:1 81:1 109:1 152:1 160:1 164:-1 #1 #2RN2A
2.733943887987853 12:1 37:1 57:1 81:1 109:1 152:1 164:-1 172:1 #1 #2RN2A
-0.12929571551574487 11:1 48:1 57:1 89:1 120:1 149:1 165:-1 178:1 #-1 #1VQBA
-2.6222840905991935 19:1 51:1 68:1 89:1 129:1 144:1 164:-1 176:1 #-1 #1RN1A
-0.57024354771105168 9:1 30:1 70:1 96:1 116:1 152:1 168:-1 178:1 #-1 #1VQBA
5 20:1 27:1 69:1 79:1 111:1 155:1 157:-1 170:1 #1 #1RN1A
5 20:1 27:1 69:1 79:1 111:1 155:1 157:-1 161:1 #1 #1RN1A
5 20:1 27:1 69:1 79:1 111:1 155:1 157:-1 160:1 #1 #1RN1A
-5 20:1 27:1 69:1 79:1 111:1 155:1 157:-1 161:1 #-1 #1RN1A
-5 20:1 27:1 69:1 79:1 111:1 155:1 157:-1 160:1 #-1 #1RN1A
-0.96646962872007669 20:1 27:1 69:1 79:1 111:1 155:1 157:-1 178:1 #-1 #1RN1A
5 13:1 29:1 68:1 100:1 129:1 134:1 157:1 169:-1 #1 #3SSIA
-5 13:1 29:1 68:1 100:1 129:1 134:1 169:-1 178:1 #-1 #3SSIA
5 25:1 38:1 69:1 103:1 112:1 141:1 174:1 176:-1 #1 #1BNIA
-0.19315383855090956 18:1 40:1 66:1 89:1 123:1 131:1 157:1 162:-1 #-1 #1BPIA
-1.3514879593216562 20:1 27:1 69:1 79:1 111:1 155:1 157:-1 165:1 #-1 #1RN1A
-5 5:1 44:1 55:1 83:1 116:1 131:1 160:-1 170:1 #-1 #2RN2A
-0.47628071453040877 25:1 38:1 69:1 103:1 112:1 141:1 157:1 176:-1 #-1 #1BNIA
5 13:1 29:1 68:1 100:1 129:1 134:1 160:1 169:-1 #1 #3SSIA
-2.3550499764811264 20:1 27:1 69:1 79:1 111:1 155:1 157:-1 168:1 #-1 #1RN1A
-0.66340635439228102 18:1 29:1 53:1 87:1 118:1 143:1 165:1 168:-1 #-1 #2LZMA
-0.098374766450884721 14:1 45:1 71:1 91:1 111:1 137:1 159:-1 175:1 #-1 #1TUPA
5 5:1 44:1 55:1 83:1 116:1 131:1 160:-1 170:1 #1 #2RN2A
2.0366538375723038 5:1 44:1 55:1 83:1 116:1 131:1 160:-1 175:1 #1 #2RN2A
-5 13:1 29:1 68:1 100:1 129:1 134:1 165:1 169:-1 #-1 #3SSIA
1.3749536051958666 19:1 38:1 66:1 79:1 115:1 149:1 157:-1 178:1 #1 #2LZMA
-1.9404035767887811 20:1 27:1 69:1 79:1 111:1 155:1 157:-1 174:1 #-1 #1RN1A
5 13:1 29:1 68:1 100:1 129:1 134:1 167:1 169:-1 #1 #3SSIA
-5 19:1 38:1 66:1 79:1 115:1 149:1 157:-1 175:1 #-1 #2LZMA
-1.6994135219213218 5:1 46:1 63:1 94:1 115:1 141:1 164:-1 181:1 #-1 #1STNA
-5 13:1 29:1 68:1 100:1 129:1 134:1 168:1 169:-1 #-1 #3SSIA
3.5780011855355185 20:1 27:1 56:1 89:1 120:1 152:1 163:1 167:-1 #1 #2RN2A
-0.74458612119039591 1:1 48:1 66:1 79:1 115:1 149:1 162:1 168:-1 #-1 #2LZMA
-0.40772050570757051 5:1 38:1 56:1 79:1 113:1 137:1 157:1 167:-1 #-1 #2LZMA
-0.78138012674447799 20:1 27:1 69:1 79:1 111:1 155:1 157:-1 179:1 #-1 #1RN1A
5 19:1 38:1 70:1 90:1 121:1 147:1 168:1 169:-1 #1 #2LZMA
5 13:1 29:1 68:1 100:1 129:1 134:1 161:1 169:-1 #1 #3SSIA
-3.7449527842006463 19:1 38:1 70:1 90:1 121:1 147:1 167:1 169:-1 #-1 #2LZMA
-0.96045028797566434 19:1 38:1 70:1 90:1 121:1 147:1 157:1 169:-1 #-1 #2LZMA
-2.6166485991810777 13:1 29:1 68:1 100:1 129:1 134:1 163:1 169:-1 #-1 #3SSIA
3.3749630515377116 9:1 40:1 77:1 97:1 111:1 136:1 176:-1 178:1 #1 #1BNIA
1.8856711306294351 7:1 27:1 77:1 85:1 124:1 149:1 170:-1 175:1 #1 #1SUPA
5 17:1 46:1 68:1 96:1 105:1 141:1 164:1 170:-1 #1 #2LZMA
-5 17:1 46:1 68:1 96:1 105:1 141:1 164:1 170:-1 #-1 #2LZMA
-5 17:1 46:1 68:1 96:1 105:1 141:1 160:1 170:-1 #-1 #2LZMA
-5 7:1 44:1 66:1 92:1 111:1 152:1 159:-1 178:1 #-1 #2LZMA
-5 13:1 29:1 68:1 100:1 129:1 134:1 168:1 169:-1 #-1 #3SSIA
5 17:1 46:1 68:1 96:1 105:1 141:1 160:1 170:-1 #1 #2LZMA
-0.61430860640714358 20:1 30:1 60:1 95:1 124:1 136:1 162:1 181:-1 #-1 #1BNIA
-5 7:1 32:1 72:1 97:1 116:1 148:1 160:1 170:-1 #-1 #2LZMA
-1.9445953330440882 17:1 46:1 77:1 89:1 116:1 146:1 160:1 164:-1 #-1 #1BNIA
5 7:1 44:1 66:1 92:1 111:1 152:1 159:-1 176:1 #1 #2LZMA
4.6034858441794837 7:1 32:1 72:1 97:1 116:1 148:1 160:1 170:-1 #1 #2LZMA
-2.4788140937676175 7:1 32:1 70:1 97:1 108:1 148:1 157:1 170:-1 #-1 #1BNIA
-5 5:1 27:1 53:1 92:1 116:1 131:1 176:1 178:-1 #-1 #2LZMA
2.8348805872915142 22:1 34:1 58:1 79:1 113:1 147:1 175:1 176:-1 #1 #1C9OA
3.0422355784400974 11:1 30:1 72:1 85:1 129:1 155:1 161:-1 167:1 #1 #2LZMA
4.2193102891803065 11:1 31:1 59:1 94:1 118:1 147:1 160:-1 170:1 #1 #1IGVA
-1.487659401506128 18:1 31:1 53:1 87:1 118:1 155:1 160:-1 170:1 #-1 #1BNIA
-5 9:1 32:1 72:1 85:1 123:1 133:1 160:-1 170:1 #-1 #2RN2A
-1.5217163816531361 9:1 33:1 59:1 87:1 110:1 149:1 160:-1 170:1 #-1 #1BNIA
-1.4330534672341002 11:1 38:1 56:1 87:1 105:1 135:1 160:1 170:-1 #-1 #2CI2I
-2.9134239352748939 22:1 32:1 69:1 96:1 109:1 149:1 160:1 170:-1 #-1 #1SARA
5 9:1 32:1 72:1 85:1 123:1 133:1 160:-1 170:1 #1 #2RN2A
2.20044033154704 5:1 27:1 53:1 92:1 116:1 131:1 165:1 178:-1 #1 #2LZMA
5 5:1 27:1 53:1 92:1 116:1 131:1 157:1 178:-1 #1 #2LZMA
-5 5:1 27:1 53:1 92:1 116:1 131:1 175:1 178:-1 #-1 #2LZMA
-4.2693699313340892 5:1 27:1 53:1 92:1 116:1 131:1 163:1 178:-1 #-1 #2LZMA
1.3971709421544709 17:1 46:1 68:1 96:1 105:1 141:1 161:1 170:-1 #1 #2LZMA
-1.9399651280968293 17:1 30:1 74:1 79:1 105:1 152:1 160:-1 172:1 #-1 #2LZMA
-2.2405190463938083 20:1 29:1 59:1 79:1 157:1 163:-1 #-1 #1BPIA
5 7:1 45:1 64:1 87:1 108:1 148:1 169:-1 178:1 #1 #1VQBA
5 7:1 45:1 64:1 87:1 108:1 148:1 165:1 169:-1 #1 #1VQBA
-0.017750086530034431 7:1 45:1 64:1 87:1 108:1 148:1 169:-1 176:1 #-1 #1VQBA
-3.8760879041801601 7:1 45:1 64:1 87:1 108:1 148:1 168:1 169:-1 #-1 #1VQBA
-1.939479272747521 7:1 45:1 64:1 87:1 108:1 148:1 162:1 169:-1 #-1 #1VQBA
2.3886191150031295 13:1 38:1 59:1 89:1 126:1 161:-1 168:1 #1 #1CSPA
2.3591149568106071 13:1 38:1 59:1 89:1 126:1 161:-1 174:1 #1 #1CSPA
5 12:1 46:1 63:1 90:1 109:1 135:1 162:-1 181:1 #1 #1CYOA
-5 12:1 46:1 63:1 90:1 109:1 135:1 162:-1 168:1 #-1 #1CYOA
-2.5055568125207888 9:1 46:1 72:1 96:1 124:1 137:1 162:-1 169:1 #-1 #2LZMA
1.8799038809617281 18:1 29:1 69:1 96:1 108:1 152:1 163:1 170:-1 #1 #1LZ1A
3.380228538915683 18:1 29:1 69:1 96:1 108:1 152:1 157:1 170:-1 #1 #1LZ1A
2.2261142789087551 7:1 27:1 71:1 100:1 120:1 149:1 162:1 169:-1 #1 #1SUPA
-2.0096815375438757 7:1 45:1 64:1 87:1 108:1 148:1 159:1 169:-1 #-1 #1VQBA
-2.0599642483391163 7:1 45:1 64:1 87:1 108:1 148:1 157:1 169:-1 #-1 #1VQBA
5 9:1 46:1 72:1 96:1 124:1 137:1 162:-1 168:1 #1 #2LZMA
-1.3003309995066838 14:1 27:1 63:1 89:1 120:1 152:1 168:-1 169:1 #-1 #2LZMA
-3.4097561841458619 9:1 46:1 72:1 96:1 124:1 137:1 162:-1 165:1 #-1 #2LZMA
5 1:1 48:1 70:1 87:1 116:1 148:1 157:1 163:-1 #1 #2LZMA
5 5:1 27:1 53:1 92:1 116:1 131:1 160:1 178:-1 #1 #2LZMA
0.06460899102307098 5:1 27:1 53:1 92:1 116:1 131:1 168:1 178:-1 #1 #2LZMA
-5 1:1 48:1 70:1 87:1 116:1 148:1 157:1 163:-1 #-1 #2LZMA
-5 13:1 33:1 57:1 85:1 126:1 131:1 160:1 176:-1 #-1 #2LZMA
-0.70360354503364742 17:1 27:1 64:1 101:1 126:1 131:1 160:1 163:-1 #-1 #1BNIA
2.4388623584457458 9:1 51:1 63:1 98:1 109:1 137:1 160:-1 170:1 #1 #2LZMA
2.8955046769331667 9:1 51:1 63:1 98:1 109:1 137:1 160:-1 175:1 #1 #2LZMA
-5 9:1 51:1 63:1 98:1 109:1 137:1 157:1 160:-1 #-1 #2LZMA
-3.2558443712617731 9:1 46:1 72:1 96:1 124:1 137:1 162:-1 178:1 #-1 #2LZMA
5 13:1 33:1 57:1 85:1 126:1 131:1 160:1 176:-1 #1 #2LZMA
5 13:1 33:1 57:1 85:1 126:1 131:1 170:1 176:-1 #1 #2LZMA
3.5278320996738457 5:1 27:1 53:1 92:1 116:1 131:1 169:1 178:-1 #1 #2LZMA
-5 13:1 33:1 57:1 85:1 126:1 131:1 170:1 176:-1 #-1 #2LZMA
2.5499409052786937 9:1 51:1 63:1 98:1 109:1 137:1 160:-1 176:1 #1 #2LZMA
-1.4958264537063009 12:1 29:1 77:1 82:1 116:1 137:1 168:1 178:-1 #-1 #1VQBA
-0.57780884652893549 1:1 48:1 70:1 81:1 105:1 142:1 164:1 174:-1 #-1 #2LZMA
3.9278386439251993 14:1 40:1 58:1 97:1 105:1 135:1 157:1 167:-1 #1 #1BPIA
5 17:1 46:1 77:1 89:1 116:1 146:1 163:1 164:-1 #1 #1BNIA
5 14:1 31:1 69:1 81:1 129:1 152:1 168:-1 179:1 #1 #1VQBA
-0.17145289991181331 6:1 48:1 56:1 90:1 108:1 144:1 167:-1 170:1 #-1 #2CI2I
-5 14:1 31:1 69:1 81:1 129:1 152:1 168:-1 174:1 #-1 #1VQBA
2.2260754100176694 18:1 27:1 75:1 79:1 127:1 148:1 157:1 178:-1 #1 #1LZ1A
2.7919197213749034 7:1 48:1 53:1 84:1 124:1 144:1 157:1 163:-1 #1 #2LZMA
-2.7992588063334036 14:1 27:1 53:1 97:1 109:1 142:1 157:1 167:-1 #-1 #2LZMA
5 14:1 31:1 69:1 81:1 129:1 152:1 168:-1 181:1 #1 #1VQBA
5 12:1 39:1 53:1 87:1 126:1 131:1 157:-1 159:1 #1 #2RN2A
-4.8578244790506186 13:1 43:1 59:1 89:1 126:1 168:1 174:-1 #-1 #1C9OA
-5 12:1 39:1 53:1 87:1 126:1 131:1 157:-1 181:1 #-1 #2RN2A
-1.0504069561997369 18:1 46:1 59:1 101:1 108:1 131:1 168:1 176:-1 #-1 #2LZMA
5 5:1 27:1 53:1 92:1 116:1 131:1 161:1 178:-1 #1 #2LZMA
-1.8741011112139454 5:1 27:1 53:1 92:1 116:1 131:1 176:1 178:-1 #-1 #2LZMA
3.4817848550005461 12:1 42:1 59:1 97:1 111:1 148:1 157:1 167:-1 #1 #1BNIA
5 12:1 45:1 72:1 97:1 121:1 155:1 157:1 160:-1 #1 #2RN2A
4.1832422977457888 11:1 38:1 68:1 89:1 123:1 137:1 163:-1 175:1 #1 #1BNIA
-1.6787661235649356 17:1 46:1 77:1 89:1 116:1 146:1 163:1 164:-1 #-1 #1BNIA
-1.2757372704237766 11:1 45:1 61:1 85:1 108:1 139:1 163:-1 178:1 #-1 #1BNIA
-0.24122726630317795 6:1 48:1 77:1 85:1 107:1 148:1 157:1 163:-1 #-1 #1BPIA
-3.1268957710314189 18:1 46:1 55:1 85:1 105:1 157:1 163:-1 #-1 #1BPIA
5 12:1 39:1 53:1 87:1 126:1 131:1 157:-1 162:1 #1 #2RN2A
5 12:1 39:1 53:1 87:1 126:1 131:1 157:-1 168:1 #1 #2RN2A
5 12:1 39:1 53:1 87:1 126:1 131:1 157:-1 169:1 #1 #2RN2A
5 9:1 46:1 63:1 83:1 105:1 147:1 157:1 175:-1 #1 #1BNIA
-5 12:1 39:1 53:1 87:1 126:1 131:1 157:-1 161:1 #-1 #2RN2A
-5 12:1 39:1 53:1 87:1 126:1 131:1 157:-1 160:1 #-1 #2RN2A
-1.9056845653512906 12:1 39:1 53:1 87:1 126:1 131:1 157:-1 170:1 #-1 #2RN2A
2.2890861244140059 19:1 46:1 63:1 89:1 120:1 142:1 167:-1 173:1 #1 #1LRPA
4.1086299204983607 6:1 46:1 66:1 90:1 122:1 143:1 157:1 175:-1 #1 #2LZMA
4.2022963548185732 1:1 37:1 71:1 90:1 108:1 141:1 157:1 161:-1 #1 #2LZMA
-5 9:1 46:1 63:1 83:1 105:1 147:1 163:1 175:-1 #-1 #1BNIA
-0.44988935403199454 11:1 27:1 61:1 83:1 115:1 141:1 164:1 181:-1 #-1 #1LRPA
-0.90045259393987764 17:1 46:1 77:1 89:1 116:1 146:1 164:-1 173:1 #-1 #1BNIA
5 12:1 39:1 53:1 87:1 126:1 131:1 157:-1 178:1 #1 #2RN2A
4.4162161567438254 14:1 31:1 64:1 79:1 108:1 135:1 157:1 160:-1 #1 #1ROPA
-5 12:1 39:1 53:1 87:1 126:1 131:1 157:-1 172:1 #-1 #2RN2A
-3.39932158329735 12:1 39:1 53:1 87:1 126:1 131:1 157:-1 173:1 #-1 #2RN2A
-4.2942239648055205 22:1 35:1 72:1 84:1 122:1 150:1 165:1 176:-1 #-1 #2LZMA
2.5680604704733674 9:1 46:1 63:1 83:1 105:1 147:1 161:1 175:-1 #1 #1BNIA
5 1:1 43:1 61:1 100:1 116:1 146:1 165:-1 178:1 #1 #2CI2I
-3.253168045552798 1:1 43:1 61:1 100:1 116:1 146:1 157:1 165:-1 #-1 #2CI2I
-5 14:1 31:1 64:1 79:1 108:1 135:1 160:-1 178:1 #-1 #1ROPA
5 22:1 35:1 72:1 84:1 122:1 150:1 176:-1 178:1 #1 #2LZMA
5 12:1 39:1 53:1 87:1 126:1 131:1 157:-1 165:1 #1 #2RN2A
-1.4798660566819493 22:1 35:1 72:1 84:1 122:1 150:1 159:1 176:-1 #-1 #2LZMA
-3.8497939141002981 12:1 39:1 53:1 87:1 126:1 131:1 157:-1 167:1 #-1 #2RN2A
-2.0082508505587962 12:1 39:1 53:1 87:1 126:1 131:1 157:-1 164:1 #-1 #2RN2A
5 14:1 31:1 64:1 79:1 108:1 135:1 160:-1 163:1 #1 #1ROPA
4.356121132269017 14:1 31:1 64:1 79:1 108:1 135:1 160:-1 175:1 #1 #1ROPA
5 14:1 31:1 64:1 79:1 108:1 135:1 160:-1 164:1 #1 #1ROPA
-2.5617655942893145 1:1 43:1 61:1 100:1 116:1 146:1 157:1 165:-1 #-1 #2CI2I
-5 14:1 31:1 64:1 79:1 108:1 135:1 160:-1 165:1 #-1 #1ROPA
-5 14:1 31:1 64:1 79:1 108:1 135:1 160:-1 168:1 #-1 #1ROPA
-5 14:1 31:1 64:1 79:1 108:1 135:1 160:-1 162:1 #-1 #1ROPA
4.2193837812472248 4:1 43:1 70:1 87:1 109:1 142:1 165:1 178:-1 #1 #1MBGA
1.9515555868303129 22:1 29:1 72:1 84:1 112:1 150:1 157:-1 165:1 #1 #1HFYA
-1.9906998224513832 5:1 27:1 71:1 84:1 124:1 141:1 157:-1 178:1 #-1 #1STNA
-1.988852308918996 7:1 48:1 59:1 90:1 110:1 144:1 157:-1 178:1 #-1 #1LRPA
3.224531231323585 14:1 31:1 64:1 79:1 108:1 135:1 160:-1 167:1 #1 #1ROPA
1.753803306626234 14:1 31:1 64:1 79:1 108:1 135:1 160:-1 174:1 #1 #1ROPA
3.8469341447018159 14:1 31:1 64:1 79:1 108:1 135:1 160:-1 173:1 #1 #1ROPA
0.67179333584596379 7:1 32:1 72:1 97:1 116:1 148:1 160:1 170:-1 #1 #2LZMA
-5 14:1 31:1 64:1 79:1 108:1 135:1 160:-1 179:1 #-1 #1ROPA
-5 14:1 31:1 64:1 79:1 108:1 135:1 160:-1 172:1 #-1 #1ROPA
5 18:1 46:1 59:1 101:1 108:1 131:1 174:1 176:-1 #1 #2LZMA
3.3877154247873951 5:1 33:1 59:1 82:1 126:1 136:1 160:1 175:-1 #1 #1C9OA
5 9:1 33:1 61:1 86:1 116:1 142:1 157:1 163:-1 #1 #2LZMA
-5 9:1 33:1 61:1 86:1 116:1 142:1 162:1 163:-1 #-1 #2LZMA
-1.4793525781587522 18:1 46:1 59:1 101:1 108:1 131:1 174:1 176:-1 #-1 #2LZMA
3.3805425280525583 14:1 31:1 64:1 79:1 108:1 135:1 159:1 160:-1 #1 #1ROPA
4.0126770704372143 14:1 31:1 64:1 79:1 108:1 135:1 160:-1 170:1 #1 #1ROPA
2.5269713377125811 14:1 31:1 64:1 79:1 108:1 135:1 160:-1 161:1 #1 #1ROPA
-5 14:1 31:1 64:1 79:1 108:1 135:1 160:-1 176:1 #-1 #1ROPA
5 12:1 44:1 66:1 89:1 116:1 141:1 157:-1 172:1 #1 #2LZMA
-3.3059235493311134 18:1 46:1 59:1 101:1 108:1 131:1 174:1 176:-1 #-1 #2LZMA
-5 12:1 44:1 66:1 89:1 116:1 141:1 157:-1 172:1 #-1 #2LZMA
-5 4:1 43:1 70:1 87:1 109:1 142:1 157:1 178:-1 #-1 #1MBGA
1.6337840875560719 14:1 31:1 64:1 79:1 108:1 135:1 160:-1 169:1 #1 #1ROPA
0.61705547109125769 14:1 31:1 64:1 79:1 108:1 135:1 160:-1 181:1 #1 #1ROPA
-5 12:1 44:1 66:1 89:1 116:1 141:1 157:-1 175:1 #-1 #2LZMA
-5 12:1 45:1 72:1 97:1 121:1 155:1 160:-1 170:1 #-1 #2RN2A
-1.2176744395672161 12:1 33:1 66:1 103:1 120:1 152:1 159:1 161:-1 #-1 #1VQBA
5 9:1 48:1 71:1 85:1 118:1 137:1 157:1 160:-1 #1 #4LYZA
4.1803644656825467 9:1 48:1 71:1 85:1 118:1 137:1 160:-1 163:1 #1 #4LYZA
5 5:1 37:1 59:1 85:1 110:1 139:1 162:1 181:-1 #1 #1C9OA
5 12:1 44:1 66:1 89:1 116:1 141:1 157:-1 172:1 #1 #2LZMA
-5 9:1 48:1 71:1 85:1 118:1 137:1 160:-1 161:1 #-1 #4LYZA
-4.724506217989747 5:1 37:1 59:1 85:1 110:1 139:1 162:1 181:-1 #-1 #1C9OA
-5 9:1 48:1 71:1 85:1 118:1 137:1 160:-1 173:1 #-1 #4LYZA
5 12:1 45:1 72:1 97:1 121:1 155:1 160:-1 170:1 #1 #2RN2A
-5 12:1 45:1 72:1 97:1 121:1 155:1 157:1 160:-1 #-1 #2RN2A
-0.49017472197663675 12:1 44:1 65:1 95:1 121:1 141:1 168:-1 169:1 #-1 #2LZMA
-5 12:1 44:1 64:1 87:1 129:1 141:1 161:1 167:-1 #-1 #2LZMA
0.22437365932672315 9:1 48:1 71:1 85:1 118:1 137:1 160:-1 162:1 #1 #4LYZA
0.62518433667536022 9:1 48:1 71:1 85:1 118:1 137:1 160:-1 175:1 #1 #4LYZA
2.7394182421804487 9:1 48:1 71:1 85:1 118:1 137:1 160:-1 170:1 #1 #4LYZA
-0.8807600537169944 6:1 48:1 77:1 85:1 107:1 148:1 163:-1 175:1 #-1 #1BPIA
-1.8561217186944086 9:1 38:1 71:1 85:1 108:1 152:1 157:1 175:-1 #-1 #1RN1A
5 12:1 44:1 64:1 87:1 129:1 141:1 161:1 167:-1 #1 #2LZMA
2.4806578764142593 12:1 45:1 72:1 97:1 121:1 155:1 160:-1 161:1 #1 #2RN2A
-0.62897475220709165 12:1 43:1 56:1 94:1 109:1 131:1 163:1 167:-1 #-1 #2CI2I
-1.2376362868756159 22:1 31:1 58:1 89:1 111:1 147:1 157:1 160:-1 #-1 #1STNA
2.737216819855337 14:1 51:1 66:1 85:1 108:1 148:1 157:-1 172:1 #1 #1LZ1A
1.3519994392444563 1:1 27:1 63:1 85:1 108:1 146:1 161:-1 173:1 #1 #1IGVA
2.0986963302423307 1:1 27:1 59:1 95:1 116:1 138:1 179:1 181:-1 #1 #1RN1A
-5 1:1 27:1 63:1 83:1 116:1 134:1 160:1 175:-1 #-1 #2LZMA
-5 1:1 27:1 63:1 83:1 116:1 134:1 172:1 175:-1 #-1 #2LZMA
-5 1:1 27:1 63:1 83:1 116:1 134:1 161:1 175:-1 #-1 #2LZMA
-1.4455984885679989 7:1 44:1 72:1 85:1 123:1 148:1 170:1 172:-1 #-1 #4LYZA
-1.1054337296985153 11:1 45:1 59:1 98:1 127:1 148:1 169:1 174:-1 #-1 #1BNIA
5 1:1 27:1 63:1 83:1 116:1 134:1 175:-1 176:1 #1 #2LZMA
1.921877716987209 1:1 27:1 63:1 83:1 116:1 134:1 175:-1 178:1 #1 #2LZMA
2.8114858760963291 1:1 27:1 63:1 83:1 116:1 134:1 173:1 175:-1 #1 #2LZMA
-5 1:1 27:1 63:1 83:1 116:1 134:1 159:1 175:-1 #-1 #2LZMA
-5 1:1 27:1 63:1 83:1 116:1 134:1 157:1 175:-1 #-1 #2LZMA
-5 1:1 27:1 63:1 83:1 116:1 134:1 170:1 175:-1 #-1 #2LZMA
3.6666312786794601 7:1 51:1 77:1 87:1 111:1 139:1 175:1 176:-1 #1 #2LZMA
5 12:1 30:1 66:1 79:1 109:1 152:1 165:-1 178:1 #1 #2CI2I
-2.7139689239435705 9:1 51:1 63:1 98:1 108:1 138:1 176:-1 178:1 #-1 #1BNIA
-1.1990142118465605 13:1 48:1 58:1 91:1 111:1 135:1 169:1 173:-1 #-1 #2LZMA
5 1:1 27:1 63:1 83:1 116:1 134:1 157:1 175:-1 #1 #2LZMA
5 20:1 46:1 58:1 98:1 111:1 150:1 161:1 174:-1 #1 #2LZMA
2.7944646983827761 11:1 33:1 53:1 98:1 111:1 146:1 161:1 167:-1 #1 #1C2RA
1.1340923000061505 19:1 46:1 64:1 90:1 126:1 142:1 161:1 164:-1 #1 #1AARA
-5 20:1 46:1 58:1 98:1 111:1 150:1 161:1 174:-1 #-1 #2LZMA
-2.7564027428940134 3:1 33:1 71:1 81:1 129:1 149:1 157:1 170:-1 #-1 #1RN1A
-2.0238615790467236 7:1 37:1 68:1 97:1 116:1 144:1 174:1 181:-1 #-1 #1VQBA
5 20:1 35:1 74:1 91:1 109:1 155:1 160:1 176:-1 #1 #2CI2I
2.8889549676049877 13:1 44:1 59:1 89:1 168:1 173:-1 #1 #1C9OA
3.7001366274181002 18:1 48:1 61:1 98:1 110:1 148:1 175:1 176:-1 #1 #2LZMA
-0.61270963335558903 11:1 51:1 66:1 83:1 111:1 136:1 170:-1 175:1 #-1 #1RN1A
-0.54038994428419573 22:1 40:1 72:1 84:1 165:-1 178:1 #-1 #1BNIA
-0.068499712018234904 18:1 46:1 59:1 101:1 108:1 131:1 168:1 176:-1 #-1 #2LZMA
1.6764887630402039 1:1 27:1 63:1 83:1 116:1 134:1 174:1 175:-1 #1 #2LZMA
2.7595517663310467 1:1 27:1 63:1 83:1 116:1 134:1 167:1 175:-1 #1 #2LZMA
5 22:1 33:1 71:1 97:1 129:1 146:1 157:1 170:-1 #1 #1RN1A
2.0961936465615958 4:1 33:1 77:1 85:1 113:1 149:1 157:1 174:-1 #1 #1LZ1A
5 3:1 33:1 56:1 94:1 109:1 139:1 157:1 178:-1 #1 #1DDRA
4.2155998424524412 1:1 27:1 63:1 83:1 116:1 134:1 164:1 175:-1 #1 #2LZMA
4.0341580834181823 1:1 27:1 63:1 83:1 116:1 134:1 157:1 175:-1 #1 #2LZMA
-4.3464808391591792 3:1 33:1 56:1 94:1 109:1 139:1 165:1 178:-1 #-1 #1DDRA
-3.5867073530963571 20:1 35:1 74:1 91:1 109:1 155:1 157:1 176:-1 #-1 #2CI2I
-1.6118857557345483 19:1 45:1 56:1 90:1 113:1 155:1 168:1 179:-1 #-1 #1BNIA
1.5709839178764986 1:1 27:1 63:1 83:1 116:1 134:1 175:-1 179:1 #1 #2LZMA
1.6068767360738148 1:1 27:1 63:1 83:1 116:1 134:1 169:1 175:-1 #1 #2LZMA
-5 1:1 27:1 63:1 83:1 116:1 134:1 163:1 175:-1 #-1 #2LZMA
3.1783402975453554 7:1 51:1 72:1 98:1 124:1 144:1 159:1 174:-1 #1 #2RN2A
2.4435277227112175 25:1 46:1 74:1 90:1 123:1 149:1 159:1 164:-1 #1 #1VQBA
-5 22:1 33:1 71:1 97:1 129:1 146:1 157:1 170:-1 #-1 #1RN1A
-2.5020886686098729 16:1 33:1 53:1 92:1 105:1 133:1 157:1 178:-1 #-1 #1LZ1A
0.38901667887539798 5:1 27:1 53:1 92:1 116:1 131:1 157:1 178:-1 #1 #2LZMA
0.25108905281818983 1:1 27:1 63:1 83:1 116:1 134:1 165:1 175:-1 #1 #2LZMA
1.998354026287205 1:1 27:1 63:1 83:1 116:1 134:1 162:1 175:-1 #1 #2LZMA
5 22:1 33:1 63:1 100:1 109:1 135:1 163:1 175:-1 #1 #2CI2I
2.3559712553975745 16:1 33:1 71:1 92:1 116:1 133:1 167:1 174:-1 #1 #4LYZA
5 22:1 35:1 72:1 82:1 109:1 131:1 167:-1 172:1 #1 #2LZMA
-3.8954679425892769 22:1 33:1 63:1 100:1 109:1 135:1 157:1 175:-1 #-1 #2CI2I
-3.7216513083561473 12:1 30:1 66:1 79:1 109:1 152:1 157:1 165:-1 #-1 #2CI2I
1.3579327521386249 1:1 27:1 63:1 83:1 116:1 134:1 175:-1 181:1 #1 #2LZMA
5 22:1 33:1 63:1 100:1 109:1 135:1 157:1 175:-1 #1 #2CI2I
3.5460279928257417 22:1 45:1 61:1 97:1 124:1 142:1 159:1 173:-1 #1 #1SUPA
3.0432651039815299 16:1 45:1 64:1 79:1 105:1 141:1 157:1 170:-1 #1 #2LZMA
-2.9489931418762123 22:1 33:1 63:1 100:1 109:1 135:1 157:1 175:-1 #-1 #2CI2I
-0.9301723591834925 18:1 29:1 56:1 90:1 105:1 148:1 161:-1 167:1 #-1 #2RN2A
-1.5250816362396691 1:1 38:1 64:1 89:1 113:1 142:1 157:-1 176:1 #-1 #1LRPA
5 22:1 35:1 66:1 84:1 108:1 137:1 160:1 176:-1 #1 #1BNIA
3.0569604771606285 25:1 31:1 65:1 83:1 105:1 152:1 159:1 181:-1 #1 #1LRPA
-4.7541146413717197 22:1 33:1 63:1 100:1 109:1 135:1 163:1 175:-1 #-1 #2CI2I
-0.85101957151671448 22:1 35:1 66:1 84:1 108:1 137:1 164:1 176:-1 #-1 #1BNIA
5 19:1 27:1 63:1 90:1 110:1 141:1 170:1 175:-1 #1 #1POHA
5 19:1 38:1 56:1 100:1 122:1 148:1 157:-1 176:1 #1 #2LZMA
-5 19:1 27:1 63:1 90:1 110:1 141:1 157:1 175:-1 #-1 #1POHA
-5 19:1 38:1 56:1 100:1 122:1 148:1 157:-1 175:1 #-1 #2LZMA
-1.421392818535123 19:1 27:1 64:1 90:1 124:1 152:1 168:1 178:-1 #-1 #3SSIA
5 9:1 32:1 71:1 96:1 109:1 137:1 160:1 170:-1 #1 #1BNIA
-4.673069253511092 9:1 32:1 71:1 96:1 109:1 137:1 157:1 170:-1 #-1 #1BNIA
1.8002524351951288 19:1 27:1 63:1 90:1 110:1 141:1 160:1 175:-1 #1 #1POHA
3.0171308118530473 19:1 38:1 56:1 100:1 122:1 148:1 157:-1 172:1 #1 #2LZMA
-2.3584308461525256 19:1 35:1 59:1 82:1 113:1 136:1 163:-1 178:1 #-1 #1BNIA
-1.4366250045786755 19:1 48:1 57:1 79:1 115:1 141:1 160:1 161:-1 #-1 #2CI2I
-1.8875840291254518 22:1 35:1 66:1 84:1 108:1 137:1 172:1 176:-1 #-1 #1BNIA
4.2387790366814952 18:1 42:1 58:1 81:1 116:1 157:1 160:-1 #1 #1BPIA
5 7:1 48:1 53:1 103:1 116:1 147:1 157:1 160:-1 #1 #1BNIA
3.6269602291595571 1:1 33:1 56:1 97:1 124:1 134:1 157:1 174:-1 #1 #1LZ1A
-5 7:1 48:1 53:1 103:1 116:1 147:1 157:1 160:-1 #-1 #1BNIA
3.7141562943189568 14:1 38:1 53:1 100:1 105:1 146:1 160:-1 161:1 #1 #1BNIA
3.362767244975303 23:1 32:1 66:1 83:1 115:1 137:1 170:-1 175:1 #1 #1C9OA
2.6016028138553415 19:1 33:1 74:1 79:1 116:1 136:1 163:-1 175:1 #1 #1LRPA
5 19:1 43:1 77:1 96:1 121:1 137:1 165:1 178:-1 #1 #2RN2A
-3.0879447822217418 1:1 27:1 65:1 96:1 112:1 137:1 160:1 167:-1 #-1 #4LYZA
-0.82131081863541222 1:1 31:1 74:1 96:1 126:1 137:1 157:1 172:-1 #-1 #2CI2I
-2.8867555241852401 25:1 37:1 68:1 92:1 124:1 138:1 160:1 170:-1 #-1 #1STNA
5 5:1 27:1 63:1 100:1 113:1 142:1 157:1 167:-1 #1 #2CI2I
-1.4168434133753023 7:1 48:1 53:1 103:1 116:1 147:1 160:-1 175:1 #-1 #1BNIA
-4.4740508223405264 5:1 27:1 63:1 100:1 113:1 142:1 163:1 167:-1 #-1 #2CI2I
5 11:1 45:1 68:1 90:1 118:1 131:1 160:1 175:-1 #1 #2LZMA
-5 11:1 45:1 68:1 90:1 118:1 131:1 160:1 175:-1 #-1 #2LZMA
-5 11:1 45:1 68:1 90:1 118:1 131:1 170:1 175:-1 #-1 #2LZMA
5 16:1 48:1 59:1 87:1 126:1 150:1 157:1 176:-1 #1 #2CI2I
3.1197105507590841 7:1 31:1 59:1 89:1 124:1 142:1 157:1 162:-1 #1 #1CSPA
3.5305226028138295 1:1 31:1 59:1 82:1 113:1 150:1 157:1 159:-1 #1 #1BTAA
-5 16:1 48:1 59:1 87:1 126:1 150:1 176:-1 178:1 #-1 #2CI2I
-2.9249093827333614 18:1 42:1 56:1 81:1 116:1 135:1 157:1 162:-1 #-1 #1BPIA
5 12:1 48:1 68:1 157:-1 178:1 #1 #1VQBA
5 22:1 35:1 64:1 98:1 108:1 149:1 175:-1 178:1 #1 #2RN2A
-0.96129534972161346 22:1 35:1 64:1 98:1 108:1 149:1 175:-1 176:1 #-1 #2RN2A
-2.9017951309322711 9:1 46:1 53:1 100:1 118:1 133:1 160:1 175:-1 #-1 #4LYZA
-3.9004209617833876 12:1 48:1 68:1 157:-1 176:1 #-1 #1VQBA
2.8919625727255811 12:1 48:1 59:1 97:1 126:1 135:1 157:1 167:-1 #1 #2CI2I
5 16:1 34:1 63:1 92:1 118:1 135:1 162:1 181:-1 #1 #1RN1A
-1.1453952125326872 16:1 48:1 59:1 87:1 126:1 150:1 175:1 176:-1 #-1 #2CI2I
-5 16:1 34:1 63:1 92:1 118:1 135:1 179:1 181:-1 #-1 #1RN1A
-1.3098124036730217 1:1 33:1 58:1 92:1 123:1 142:1 157:1 176:-1 #-1 #2LZMA
-1.9764506119415257 14:1 32:1 66:1 95:1 105:1 150:1 165:1 176:-1 #-1 #4LYZA
5 9:1 46:1 53:1 100:1 118:1 133:1 175:-1 176:1 #1 #4LYZA
5 14:1 45:1 64:1 91:1 116:1 147:1 169:1 174:-1 #1 #2LZMA
-5 14:1 45:1 64:1 91:1 116:1 147:1 169:1 174:-1 #-1 #2LZMA
-1.3998720973732399 9:1 46:1 53:1 100:1 118:1 133:1 175:-1 181:1 #-1 #4LYZA
-0.077913375758336359 12:1 30:1 66:1 79:1 109:1 152:1 157:1 165:-1 #-1 #2CI2I
5 1:1 33:1 58:1 92:1 123:1 142:1 161:1 176:-1 #1 #2LZMA
5 5:1 29:1 57:1 92:1 105:1 138:1 168:1 169:-1 #1 #3SSIA
5 11:1 45:1 68:1 90:1 118:1 131:1 160:1 175:-1 #1 #2LZMA
-2.7954630537621399 1:1 33:1 58:1 92:1 123:1 142:1 161:1 176:-1 #-1 #2LZMA
5 14:1 44:1 65:1 90:1 117:1 131:1 161:-1 173:1 #1 #2RN2A
3.4156646825178671 18:1 35:1 56:1 85:1 116:1 148:1 161:-1 164:1 #1 #2LZMA
-5 5:1 29:1 57:1 92:1 105:1 138:1 168:1 169:-1 #-1 #3SSIA
-2.0556444220963117 5:1 29:1 57:1 92:1 105:1 138:1 165:1 169:-1 #-1 #3SSIA
2.2768601166518585 22:1 33:1 69:1 85:1 123:1 142:1 162:-1 179:1 #1 #1VQBA
2.6331239532705553 1:1 48:1 70:1 79:1 126:1 139:1 165:1 176:-1 #1 #3MBPA
3.2670800091626684 1:1 27:1 64:1 92:1 123:1 139:1 160:1 170:-1 #1 #1SUPA
-3.6095431133378391 1:1 33:1 58:1 92:1 123:1 142:1 161:1 176:-1 #-1 #2LZMA
3.5403790553717007 19:1 30:1 74:1 98:1 105:1 147:1 157:1 175:-1 #1 #1RN1A
-5 14:1 44:1 65:1 90:1 117:1 131:1 160:1 161:-1 #-1 #2RN2A
-5 14:1 44:1 65:1 90:1 117:1 131:1 161:-1 173:1 #-1 #2RN2A
-1.8623868627156259 19:1 30:1 56:1 79:1 108:1 131:1 160:1 170:-1 #-1 #2AKYA
3.508493546811092 25:1 33:1 53:1 92:1 111:1 150:1 167:1 181:-1 #1 #1SUPA
0.14359013530202561 9:1 32:1 72:1 85:1 123:1 133:1 160:-1 161:1 #1 #2RN2A
5 1:1 33:1 58:1 92:1 123:1 142:1 161:1 176:-1 #1 #2LZMA
-5 11:1 33:1 60:1 85:1 112:1 146:1 157:-1 176:1 #-1 #2RN2A
-1.904390878007638 4:1 35:1 66:1 98:1 123:1 137:1 162:1 181:-1 #-1 #1BNIA
-4.381674424103263 22:1 32:1 69:1 85:1 109:1 150:1 167:1 169:-1 #-1 #2LZMA
5 14:1 44:1 65:1 90:1 117:1 131:1 160:1 161:-1 #1 #2RN2A
-5 1:1 33:1 58:1 92:1 123:1 142:1 161:1 176:-1 #-1 #2LZMA
5 11:1 33:1 60:1 85:1 112:1 146:1 157:-1 176:1 #1 #2RN2A
5 22:1 32:1 69:1 85:1 109:1 150:1 168:1 169:-1 #1 #2LZMA
0.011261962856869784 9:1 48:1 71:1 85:1 118:1 137:1 160:-1 174:1 #1 #4LYZA
-0.005111931151832616 3:1 33:1 71:1 81:1 129:1 149:1 157:1 170:-1 #-1 #1RN1A
-0.75113799814332671 6:1 38:1 64:1 85:1 110:1 146:1 160:-1 164:1 #-1 #1ANKA
-0.37980750248239226 9:1 51:1 53:1 85:1 115:1 143:1 160:-1 163:1 #-1 #1STNA
5 5:1 29:1 57:1 92:1 105:1 138:1 168:1 169:-1 #1 #3SSIA
5 19:1 31:1 53:1 79:1 116:1 137:1 157:1 173:-1 #1 #1BNIA
2.4895961735827967 4:1 51:1 64:1 98:1 129:1 138:1 165:1 173:-1 #1 #1BNIA
-0.74402983201999395 5:1 27:1 69:1 90:1 111:1 153:1 157:-1 168:1 #-1 #1BNIA
-1.2534997351222745 9:1 32:1 57:1 90:1 122:1 139:1 168:1 169:-1 #-1 #2LZMA
-0.25753537851128144 5:1 31:1 53:1 89:1 126:1 139:1 157:1 167:-1 #-1 #2CI2I
3.3308731359677628 16:1 27:1 56:1 79:1 127:1 136:1 168:-1 174:1 #1 #1DDRA
3.65442213024936 23:1 44:1 66:1 81:1 115:1 137:1 164:1 174:-1 #1 #4LYZA
5 14:1 44:1 53:1 96:1 126:1 139:1 161:1 167:-1 #1 #2LZMA
2.6167161329070723 19:1 37:1 65:1 95:1 110:1 144:1 168:1 172:-1 #1 #1ARRA
-1.9058065001111795 25:1 44:1 59:1 97:1 116:1 131:1 165:-1 178:1 #-1 #1LZ1A
-1.3172113982147236 6:1 44:1 72:1 98:1 127:1 134:1 160:1 163:-1 #-1 #2LZMA
5 13:1 40:1 58:1 83:1 117:1 165:-1 168:1 #1 #2LZMA
-1.0698596364305859 13:1 40:1 58:1 83:1 117:1 165:-1 169:1 #-1 #2LZMA
-0.43912134940636971 13:1 40:1 58:1 83:1 117:1 165:-1 181:1 #-1 #2LZMA
-0.44350506796032896 18:1 43:1 77:1 95:1 111:1 133:1 157:1 178:-1 #-1 #1LZ1A
-0.68850999618941366 25:1 51:1 72:1 85:1 113:1 137:1 157:1 165:-1 #-1 #2LZMA
-0.43751811449144268 5:1 43:1 64:1 103:1 126:1 134:1 159:-1 165:1 #-1 #1VQBA
-1.2202902915547038 7:1 32:1 68:1 98:1 113:1 146:1 163:1 174:-1 #-1 #1ANKA
2.9032113312181607 13:1 29:1 68:1 100:1 129:1 134:1 157:1 169:-1 #1 #3SSIA
1.8743239541391268 13:1 29:1 68:1 100:1 129:1 134:1 161:1 169:-1 #1 #3SSIA
-0.57243001606392507 13:1 40:1 58:1 83:1 117:1 165:-1 169:1 #-1 #2LZMA
-1.5222958249744256 13:1 40:1 58:1 83:1 117:1 165:-1 181:1 #-1 #2LZMA
0.38215788700877418 25:1 48:1 70:1 85:1 113:1 150:1 168:1 173:-1 #1 #2RN2A
2.7528434853410539 22:1 46:1 63:1 79:1 161:-1 168:1 #1 #1CSPA
2.5866433613807489 1:1 46:1 66:1 92:1 105:1 137:1 162:1 181:-1 #1 #1LZ1A
-3.7991838495494403 14:1 31:1 69:1 81:1 129:1 152:1 164:1 168:-1 #-1 #1VQBA
-0.6771436429653287 12:1 27:1 56:1 79:1 120:1 137:1 157:1 178:-1 #-1 #1BNIA
-1.5285919016563339 5:1 29:1 57:1 92:1 105:1 138:1 157:1 169:-1 #-1 #3SSIA
-5 18:1 33:1 75:1 98:1 105:1 134:1 167:-1 174:1 #-1 #2RN2A
-4.9779928708991488 14:1 44:1 53:1 96:1 126:1 139:1 161:1 167:-1 #-1 #2LZMA
-1.4538573414774441 17:1 30:1 63:1 83:1 105:1 147:1 157:1 172:-1 #-1 #2CI2I
2.9830141695645724 4:1 43:1 69:1 90:1 113:1 136:1 161:1 174:-1 #1 #1AARA
3.6392831864776021 19:1 30:1 59:1 85:1 117:1 144:1 160:1 170:-1 #1 #4LYZA
3.1162469481608768 7:1 51:1 68:1 89:1 129:1 146:1 157:1 163:-1 #1 #1SUPA
-2.0322035120897359 4:1 40:1 77:1 85:1 129:1 149:1 173:1 174:-1 #-1 #4LYZA
-2.4548034745540859 4:1 40:1 61:1 97:1 124:1 144:1 168:1 169:-1 #-1 #1ONCA
5 18:1 33:1 75:1 98:1 105:1 134:1 167:-1 174:1 #1 #2RN2A
1.7028393630448413 9:1 32:1 74:1 98:1 116:1 150:1 167:-1 173:1 #1 #1AARA
5 8:1 43:1 61:1 101:1 109:1 153:1 167:-1 174:1 #1 #2RN2A
-5 8:1 43:1 61:1 101:1 109:1 153:1 167:-1 174:1 #-1 #2RN2A
-2.0733606255623949 5:1 32:1 66:1 81:1 115:1 150:1 160:1 167:-1 #-1 #1C2RA
-0.8399673307476313 14:1 37:1 55:1 98:1 107:1 138:1 161:1 167:-1 #-1 #1C2RA
1.998036606392906 4:1 33:1 77:1 85:1 113:1 149:1 163:1 174:-1 #1 #1LZ1A
2.2747667061332897 1:1 33:1 77:1 90:1 112:1 135:1 167:1 173:-1 #1 #1RN1A
-0.02011540449857202 19:1 45:1 56:1 90:1 113:1 155:1 179:-1 181:1 #-1 #1BNIA
-1.7160971799013858 19:1 46:1 56:1 85:1 113:1 136:1 162:1 181:-1 #-1 #1LZ1A
-3.3766697473438372 1:1 51:1 63:1 90:1 160:1 170:-1 #-1 #2LZMA
5 17:1 48:1 72:1 83:1 115:1 152:1 172:1 175:-1 #1 #1G6NA
2.7694583383817406 9:1 37:1 75:1 101:1 126:1 141:1 161:-1 178:1 #1 #2RN2A
-4.0165491530086577 17:1 48:1 72:1 83:1 115:1 152:1 157:1 175:-1 #-1 #1G6NA
-5 22:1 35:1 72:1 82:1 109:1 131:1 167:-1 172:1 #-1 #2LZMA
3.2946425278330529 25:1 40:1 66:1 83:1 111:1 136:1 179:1 181:-1 #1 #1RN1B
-2.7406975843284869 7:1 51:1 66:1 90:1 105:1 135:1 159:1 163:-1 #-1 #3MBPA
-1.2907528181552526 6:1 44:1 66:1 82:1 122:1 139:1 157:1 175:-1 #-1 #1BNIA
-1.1991056572367247 12:1 31:1 66:1 90:1 116:1 150:1 160:1 181:-1 #-1 #3MBPA
0.34448999460824342 20:1 27:1 56:1 89:1 120:1 152:1 157:1 167:-1 #1 #2RN2A
2.0539670484985706 7:1 32:1 72:1 97:1 116:1 148:1 157:1 170:-1 #1 #2LZMA
-1.5974738254767404 12:1 32:1 74:1 89:1 116:1 134:1 157:1 160:-1 #-1 #2CI2I
-2.5965709685863434 20:1 31:1 75:1 83:1 116:1 152:1 157:1 172:-1 #-1 #2CI2I
-1.8367211751413632 9:1 46:1 64:1 83:1 111:1 147:1 160:-1 164:1 #-1 #1VQBA
3.4224423622808327 4:1 43:1 70:1 87:1 109:1 142:1 168:1 178:-1 #1 #1MBGA
-1.0249712779932727 25:1 35:1 72:1 97:1 109:1 131:1 163:1 167:-1 #-1 #1BNIA
5 18:1 49:1 56:1 79:1 105:1 152:1 157:1 161:-1 #1 #2LZMA
-5 18:1 49:1 56:1 79:1 105:1 152:1 161:-1 167:1 #-1 #2LZMA
2.935642005834636 16:1 51:1 71:1 92:1 109:1 147:1 168:-1 178:1 #1 #1VQBA
2.888638244907006 12:1 45:1 63:1 83:1 116:1 141:1 161:-1 173:1 #1 #1IGVA
-1.2159770718047076 7:1 33:1 55:1 79:1 115:1 148:1 157:1 174:-1 #-1 #1BPIA
-1.638587989356608 5:1 33:1 69:1 100:1 123:1 136:1 157:1 161:-1 #-1 #1C9OA
-1.8134419886370179 4:1 34:1 77:1 98:1 110:1 150:1 157:1 173:-1 #-1 #1BNIA
-0.79147833992398231 12:1 39:1 53:1 87:1 126:1 131:1 157:-1 176:1 #-1 #2RN2A
5 13:1 38:1 69:1 89:1 122:1 153:1 161:1 173:-1 #1 #2LZMA
-2.2814054857281278 19:1 31:1 53:1 79:1 116:1 137:1 163:1 173:-1 #-1 #1BNIA
-3.5539417242467235 19:1 31:1 53:1 79:1 116:1 137:1 173:-1 175:1 #-1 #1BNIA
-5 13:1 38:1 69:1 89:1 122:1 153:1 157:1 173:-1 #-1 #2LZMA
3.7477824357744081 7:1 35:1 58:1 87:1 118:1 149:1 157:1 173:-1 #1 #1LZ1A
-1.5719880770865522 11:1 38:1 68:1 92:1 129:1 139:1 160:-1 169:1 #-1 #1BNIA
-1.4656806513491127 19:1 42:1 77:1 83:1 127:1 146:1 162:1 181:-1 #-1 #1RN1A
-1.5208090297895163 23:1 30:1 57:1 79:1 126:1 144:1 157:-1 178:1 #-1 #2LZMA
5 19:1 38:1 66:1 79:1 115:1 149:1 157:-1 160:1 #1 #2LZMA
-4.2913824585024249 22:1 35:1 64:1 98:1 108:1 149:1 168:1 175:-1 #-1 #2RN2A
-2.122664243084091 18:1 27:1 63:1 92:1 118:1 136:1 157:1 174:-1 #-1 #1BPIA
-1.157725575252144 16:1 51:1 72:1 94:1 107:1 141:1 157:1 163:-1 #-1 #1BPIA
-0.17766363229403792 12:1 39:1 53:1 87:1 126:1 131:1 157:-1 163:1 #-1 #2RN2A
5 22:1 45:1 56:1 92:1 111:1 143:1 163:-1 174:1 #1 #4LYZA
-4.6563136777904877 22:1 45:1 56:1 92:1 111:1 143:1 163:-1 178:1 #-1 #4LYZA
-2.410653631720364 5:1 35:1 74:1 85:1 118:1 148:1 161:1 173:-1 #-1 #1C9OA
-2.4200338847511969 11:1 45:1 74:1 83:1 105:1 141:1 160:1 161:-1 #-1 #2CI2I
2.197159102217515 1:1 27:1 63:1 83:1 123:1 144:1 162:-1 181:1 #1 #4LYZA
-2.7478555183959275 7:1 39:1 59:1 97:1 111:1 152:1 173:-1 181:1 #-1 #1LRPA
-1.983765746506388 12:1 38:1 56:1 84:1 120:1 148:1 163:-1 178:1 #-1 #1ANKA
-5 7:1 38:1 77:1 100:1 112:1 142:1 159:1 176:-1 #-1 #1VQBA
2.6133859484792712 19:1 46:1 64:1 90:1 126:1 142:1 164:-1 173:1 #1 #1AARA
2.0753308603540681 11:1 37:1 65:1 83:1 118:1 131:1 168:1 178:-1 #1 #1STNA
-3.2892392592031854 9:1 46:1 53:1 100:1 118:1 133:1 175:-1 178:1 #-1 #4LYZA
-1.5459583269564996 1:1 37:1 70:1 87:1 124:1 150:1 165:1 178:-1 #-1 #2LZMA
5 7:1 38:1 77:1 100:1 112:1 142:1 176:-1 178:1 #1 #1VQBA
-1.1105543637882203 19:1 48:1 66:1 79:1 115:1 141:1 157:1 159:-1 #-1 #4LYZA
-0.91362659855949635 1:1 48:1 66:1 79:1 115:1 149:1 168:-1 169:1 #-1 #2LZMA
-1.1859011323157786 12:1 43:1 56:1 94:1 109:1 131:1 157:1 167:-1 #-1 #2CI2I
1.6414597643391615 1:1 32:1 60:1 97:1 111:1 155:1 165:1 176:-1 #1 #1HFYA
-2.3894130563094147 9:1 40:1 72:1 82:1 111:1 152:1 162:-1 168:1 #-1 #1BNIA
-1.3149219523708289 8:1 38:1 71:1 84:1 115:1 152:1 175:-1 176:1 #-1 #1VQBA
-2.786549295926283 11:1 51:1 66:1 83:1 111:1 136:1 160:1 170:-1 #-1 #1RN1A
2.5948916204263428 18:1 43:1 59:1 94:1 129:1 149:1 167:-1 178:1 #1 #1VQBA
-2.7681441725231108 18:1 31:1 59:1 90:1 120:1 137:1 167:-1 174:1 #-1 #1BNIA
-1.4936828061224894 19:1 27:1 57:1 81:1 117:1 148:1 157:1 160:-1 #-1 #1BPIA
-1.9566912806660215 19:1 37:1 59:1 90:1 105:1 134:1 160:1 170:-1 #-1 #1BNIA
1.6288900042826102 7:1 48:1 53:1 84:1 124:1 144:1 161:1 163:-1 #1 #2LZMA
1.428840629799508 23:1 48:1 55:1 79:1 115:1 136:1 157:-1 165:1 #1 #4LYZA
2.3339748150149529 22:1 29:1 72:1 84:1 112:1 150:1 157:-1 176:1 #1 #1HFYA
-1.123506963978478 7:1 33:1 56:1 84:1 123:1 144:1 165:-1 178:1 #-1 #1BNIA
-0.4167779980393323 16:1 40:1 70:1 89:1 122:1 152:1 157:-1 176:1 #-1 #2LZMA
-1.4525182419742082 8:1 51:1 69:1 84:1 124:1 141:1 176:-1 178:1 #-1 #1BNIA
2.3558475689484224 18:1 35:1 56:1 85:1 116:1 148:1 157:1 161:-1 #1 #2LZMA
-5 18:1 35:1 56:1 85:1 116:1 148:1 161:-1 170:1 #-1 #2LZMA
-0.18687310767116735 19:1 31:1 64:1 89:1 105:1 139:1 157:1 160:-1 #-1 #2LZMA
-0.3208440308871634 4:1 44:1 64:1 90:1 126:1 146:1 159:1 174:-1 #-1 #1VQBA
2.20508417162306 19:1 38:1 58:1 90:1 121:1 150:1 161:1 167:-1 #1 #1POHA
-1.5584633032736708 14:1 38:1 53:1 97:1 122:1 153:1 161:1 167:-1 #-1 #2LZMA
-1.2896651320241277 20:1 48:1 60:1 97:1 123:1 136:1 168:-1 172:1 #-1 #1VQBA
1.4765923356418247 18:1 35:1 56:1 85:1 116:1 148:1 161:-1 162:1 #1 #2LZMA
1.6331378556601033 13:1 37:1 70:1 85:1 116:1 134:1 164:-1 168:1 #1 #4LYZA
-0.88650916338729058 22:1 35:1 66:1 84:1 108:1 137:1 175:1 176:-1 #-1 #1BNIA
-0.89291226497764675 22:1 37:1 61:1 90:1 108:1 135:1 176:-1 178:1 #-1 #1VQBA
-1.1119004218153254 22:1 35:1 66:1 84:1 108:1 137:1 161:1 176:-1 #-1 #1BNIA
-1.8029704885769207 23:1 31:1 71:1 103:1 118:1 150:1 157:1 163:-1 #-1 #1LZ1A
-0.599277550902102 1:1 38:1 61:1 91:1 126:1 136:1 157:1 170:-1 #-1 #2LZMA
1.4799923261728876 9:1 48:1 71:1 85:1 118:1 137:1 160:-1 167:1 #1 #4LYZA
-1.269934995283283 22:1 44:1 64:1 100:1 108:1 141:1 162:-1 178:1 #-1 #2CI2I
-1.2975997799425147 18:1 44:1 55:1 90:1 113:1 144:1 157:-1 178:1 #-1 #2LZMA
2.5436322131312208 7:1 43:1 71:1 100:1 111:1 131:1 157:1 163:-1 #1 #1LRPA
1.5812407207023353 18:1 27:1 75:1 79:1 127:1 148:1 172:1 178:-1 #1 #1LZ1A
-0.96895423066744568 7:1 30:1 72:1 89:1 116:1 143:1 162:1 178:-1 #-1 #1STNA
-1.1605308277941777 5:1 46:1 59:1 79:1 111:1 136:1 165:1 178:-1 #-1 #2LZMA
1.8467421430994913 25:1 33:1 70:1 90:1 105:1 155:1 163:-1 178:1 #1 #1STNA
-1.363557349526239 19:1 38:1 65:1 82:1 122:1 142:1 165:-1 178:1 #-1 #1VQBA
-1.5049055824397319 12:1 48:1 63:1 98:1 116:1 134:1 165:-1 178:1 #-1 #1VQBA
-1.2022904611993153 12:1 30:1 59:1 94:1 122:1 150:1 162:-1 168:1 #-1 #1ANKA
1.9105948011208249 5:1 44:1 55:1 83:1 116:1 131:1 160:-1 170:1 #1 #2RN2A
-3.501187215591353 13:1 29:1 68:1 100:1 129:1 134:1 169:-1 178:1 #-1 #3SSIA
-0.90428848138986406 20:1 37:1 71:1 79:1 121:1 131:1 157:1 161:-1 #-1 #1BNIA
-0.48301557016679164 11:1 35:1 72:1 82:1 109:1 137:1 168:-1 178:1 #-1 #1VQBA
-1.939208013727644 13:1 29:1 68:1 100:1 129:1 134:1 165:1 169:-1 #-1 #3SSIA
4.2598882590747724 13:1 29:1 68:1 100:1 129:1 134:1 167:1 169:-1 #1 #3SSIA
-1.1665445205257938 6:1 31:1 56:1 85:1 112:1 149:1 178:-1 181:1 #-1 #1CYOA
-1.4727211727846941 17:1 27:1 64:1 101:1 126:1 131:1 163:-1 174:1 #-1 #1BNIA
-1.5160994496537574 16:1 42:1 77:1 85:1 120:1 133:1 157:1 176:-1 #-1 #1BPIA
-0.79023272813682355 22:1 32:1 71:1 84:1 112:1 134:1 161:-1 167:1 #-1 #1DDRA
3.3118028754033002 9:1 32:1 72:1 85:1 123:1 133:1 157:1 160:-1 #1 #2RN2A
-2.1616792543793522 25:1 40:1 53:1 79:1 111:1 142:1 157:1 167:-1 #-1 #1BPIA
-1.0481406894866772 1:1 48:1 70:1 81:1 105:1 142:1 164:1 174:-1 #-1 #2LZMA
-0.90183620772920836 4:1 45:1 64:1 79:1 126:1 148:1 160:-1 170:1 #-1 #2LZMA
-3.9784081063150074 1:1 43:1 61:1 100:1 116:1 146:1 165:-1 176:1 #-1 #2CI2I
-1.0361898012129276 22:1 33:1 72:1 100:1 124:1 143:1 157:1 165:-1 #-1 #2CI2I
-1.3310051314258784 14:1 38:1 63:1 83:1 127:1 146:1 176:-1 178:1 #-1 #2CI2I
-0.39062147567170441 7:1 48:1 61:1 89:1 108:1 135:1 160:1 176:-1 #-1 #2LZMA
-0.93523647111156161 12:1 43:1 72:1 86:1 115:1 142:1 162:1 181:-1 #-1 #1BNIA
-1.1081498347100118 4:1 31:1 64:1 92:1 118:1 146:1 164:1 176:-1 #-1 #2AKYA
-0.69420158465835735 19:1 40:1 55:1 97:1 123:1 149:1 162:1 181:-1 #-1 #1RN1A
-0.73494757777248076 7:1 38:1 55:1 98:1 110:1 152:1 157:1 173:-1 #-1 #1BPIA
-3.1870003888866751 5:1 27:1 53:1 92:1 116:1 131:1 176:1 178:-1 #-1 #2LZMA
-0.59493470707345564 22:1 46:1 75:1 89:1 123:1 152:1 178:-1 181:1 #-1 #1DDRA
-0.45320648103552474 22:1 46:1 75:1 89:1 123:1 152:1 165:1 178:-1 #-1 #1DDRA
1.8377319267078132 7:1 38:1 71:1 83:1 123:1 152:1 173:-1 181:1 #1 #1LRPA
-0.69010952334217268 7:1 32:1 59:1 87:1 109:1 152:1 157:1 162:-1 #-1 #1CSPA
-0.87234796492141442 16:1 43:1 59:1 96:1 105:1 153:1 165:-1 178:1 #-1 #1LZ1A
-0.23274404713826075 14:1 46:1 58:1 85:1 126:1 131:1 160:-1 175:1 #-1 #1BNIA
1.2127497721444926 1:1 27:1 74:1 90:1 105:1 141:1 162:1 170:-1 #1 #2LZMA
-1.5622234547537157 18:1 51:1 58:1 92:1 105:1 141:1 157:1 181:-1 #-1 #1BPIA
-1.8271372735890621 22:1 48:1 58:1 83:1 118:1 144:1 157:1 170:-1 #-1 #1RN1A
5 13:1 40:1 58:1 83:1 117:1 165:-1 168:1 #1 #2LZMA
-2.4548888593491958 13:1 40:1 58:1 83:1 117:1 165:-1 179:1 #-1 #2LZMA
-1.5141810848875752 1:1 37:1 53:1 90:1 107:1 147:1 157:1 163:-1 #-1 #1BPIA
-1.2180331636133575 23:1 27:1 56:1 90:1 118:1 141:1 162:1 165:-1 #-1 #2AKYA
-1.5177683288414954 12:1 35:1 66:1 100:1 110:1 147:1 168:1 169:-1 #-1 #2LZMA
-0.39446338954016835 3:1 27:1 64:1 92:1 117:1 152:1 165:-1 169:1 #-1 #2LZMA
-1.3137126956352776 19:1 30:1 70:1 90:1 129:1 149:1 165:-1 168:1 #-1 #1BNIA
-1.9152807866989419 13:1 40:1 58:1 83:1 117:1 165:-1 178:1 #-1 #2LZMA
-1.0819045989834357 25:1 48:1 56:1 85:1 118:1 135:1 165:1 168:-1 #-1 #1VQBA
-1.3358238984556319 7:1 42:1 55:1 79:1 122:1 139:1 157:1 167:-1 #-1 #1BPIA
-1.2471595038221839 14:1 29:1 77:1 97:1 123:1 134:1 157:1 175:-1 #-1 #1RN1A
-0.88404876967185908 13:1 40:1 58:1 83:1 117:1 161:1 165:-1 #-1 #2LZMA
-1.2519605313725752 5:1 38:1 56:1 79:1 113:1 137:1 157:1 167:-1 #-1 #2LZMA
-0.81833225463334336 16:1 33:1 53:1 96:1 126:1 152:1 157:1 160:-1 #-1 #1RN1A
2.7618842036045494 13:1 29:1 68:1 100:1 129:1 134:1 160:1 169:-1 #1 #3SSIA
-1.0848422980922665 13:1 48:1 58:1 91:1 111:1 135:1 161:1 173:-1 #-1 #2LZMA
-1.2963546957537395 1:1 38:1 59:1 86:1 121:1 139:1 172:1 173:-1 #-1 #2RN2A
-3.2879809950222607 19:1 43:1 77:1 96:1 121:1 137:1 157:1 178:-1 #-1 #2RN2A
-1.4951967931990278 11:1 45:1 74:1 83:1 105:1 141:1 161:-1 173:1 #-1 #2CI2I
1.2097222085744386 7:1 35:1 72:1 101:1 113:1 138:1 168:1 173:-1 #1 #2RN2A
-0.95808107223292471 18:1 46:1 59:1 101:1 108:1 131:1 168:1 176:-1 #-1 #2LZMA
-0.074792760265501607 18:1 46:1 59:1 101:1 108:1 131:1 165:1 176:-1 #-1 #2LZMA
-0.66676228731170328 7:1 30:1 74:1 97:1 111:1 137:1 162:1 181:-1 #-1 #1RN1A
-1.3092469087704517 12:1 45:1 71:1 89:1 126:1 137:1 162:-1 168:1 #-1 #1VQBA
5 9:1 46:1 72:1 96:1 124:1 137:1 162:-1 168:1 #1 #2LZMA
-1.2056584406340747 9:1 42:1 72:1 90:1 116:1 136:1 168:-1 174:1 #-1 #2TRXA
-0.99734650001357905 13:1 31:1 77:1 87:1 108:1 148:1 157:1 174:-1 #-1 #2CI2I
-1.0759706616815277 9:1 46:1 72:1 96:1 124:1 137:1 162:-1 165:1 #-1 #2LZMA
1.9262857981983321 7:1 44:1 66:1 92:1 111:1 152:1 159:-1 176:1 #1 #2LZMA
-0.62987134840459402 22:1 44:1 69:1 100:1 121:1 137:1 162:1 181:-1 #-1 #1LZ1A
-0.94764191545100762 7:1 37:1 72:1 85:1 105:1 152:1 163:1 172:-1 #-1 #1LZ1A
-1.0216427193508051 1:1 37:1 70:1 92:1 110:1 141:1 163:1 170:-1 #-1 #1BPIA
-0.65302511232763605 7:1 35:1 64:1 92:1 105:1 141:1 167:1 174:-1 #-1 #2LZMA
3.4038927316914256 11:1 45:1 68:1 90:1 118:1 131:1 160:1 175:-1 #1 #2LZMA
-0.88098354712591331 14:1 27:1 55:1 90:1 123:1 133:1 157:1 164:-1 #-1 #1LZ1A
-0.95014063983082131 9:1 32:1 69:1 92:1 123:1 148:1 165:-1 178:1 #-1 #1LZ1A
-1.4145421738658908 16:1 30:1 66:1 87:1 124:1 141:1 162:1 181:-1 #-1 #1BNIA
-1.2251169736294176 11:1 46:1 53:1 89:1 115:1 146:1 160:-1 161:1 #-1 #2RN2A
-0.96320325577903887 19:1 33:1 58:1 92:1 123:1 134:1 167:1 174:-1 #-1 #1BNIA
-0.85711396265355222 22:1 31:1 59:1 97:1 108:1 152:1 163:-1 173:1 #-1 #1C9OA
-1.0764430468173349 14:1 45:1 64:1 91:1 116:1 147:1 161:1 174:-1 #-1 #2LZMA
1.1267568751334807 7:1 51:1 59:1 87:1 116:1 148:1 157:-1 178:1 #1 #2RN2A
-0.78425465295055863 22:1 30:1 53:1 100:1 122:1 137:1 157:-1 172:1 #-1 #2LZMA
-0.55889867546680705 7:1 39:1 66:1 96:1 120:1 139:1 173:1 174:-1 #-1 #1TUPA
-1.0145424107718959 25:1 45:1 71:1 101:1 116:1 139:1 160:-1 170:1 #-1 #1BNIA
-0.0024253495053458973 5:1 29:1 57:1 92:1 105:1 138:1 169:-1 178:1 #-1 #3SSIA
-0.63947601319948943 7:1 38:1 56:1 103:1 122:1 137:1 167:1 170:-1 #-1 #4LYZA
-0.93382723158185499 5:1 29:1 57:1 92:1 105:1 138:1 169:-1 178:1 #-1 #3SSIA
-1.0843458004450961 22:1 44:1 69:1 87:1 124:1 147:1 157:1 163:-1 #-1 #2RN2A
-1.3888631425278359 11:1 31:1 64:1 89:1 109:1 136:1 157:-1 163:1 #-1 #3MBPA
-1.09530731182201 7:1 37:1 71:1 85:1 111:1 134:1 165:-1 178:1 #-1 #1BNIA
1.2534244076847978 6:1 29:1 68:1 81:1 129:1 147:1 164:-1 181:1 #1 #1A23A
1.8030430879083281 17:1 46:1 68:1 96:1 105:1 141:1 160:1 170:-1 #1 #2LZMA
-0.55637053661621683 12:1 45:1 71:1 89:1 126:1 137:1 162:-1 178:1 #-1 #1VQBA
4.796488442965539 1:1 43:1 61:1 100:1 116:1 146:1 165:-1 178:1 #1 #2CI2I
-2.6620664828157605 17:1 46:1 77:1 89:1 116:1 146:1 164:-1 174:1 #-1 #1BNIA
-0.90398847668324755 1:1 37:1 63:1 87:1 116:1 147:1 157:1 178:-1 #-1 #2CI2I
2.1117437908099221 16:1 34:1 63:1 92:1 118:1 135:1 162:1 181:-1 #1 #1RN1A
-0.97649294576900569 19:1 31:1 64:1 89:1 105:1 139:1 157:1 160:-1 #-1 #2LZMA
-1.3794544199118255 7:1 48:1 61:1 89:1 108:1 135:1 176:-1 178:1 #-1 #2LZMA
-0.92203054887918268 5:1 45:1 59:1 92:1 124:1 148:1 162:1 181:-1 #-1 #1LZ1A
-1.4102094070052296 1:1 33:1 58:1 92:1 123:1 142:1 161:1 176:-1 #-1 #2LZMA
1.033807215228598 23:1 48:1 55:1 79:1 115:1 136:1 157:-1 178:1 #1 #4LYZA
-1.408001244808228 19:1 32:1 63:1 85:1 121:1 136:1 172:1 178:-1 #-1 #1VQBA
3.0219503433229509 13:1 29:1 68:1 100:1 129:1 134:1 157:1 169:-1 #1 #3SSIA
-0.018758229587365005 19:1 45:1 56:1 90:1 113:1 155:1 179:-1 181:1 #-1 #1BNIA
-1.9874521878417504 13:1 29:1 68:1 100:1 129:1 134:1 168:1 169:-1 #-1 #3SSIA
-2.2011284518416789 13:1 29:1 68:1 100:1 129:1 134:1 165:1 169:-1 #-1 #3SSIA
-1.7476427475755081 13:1 29:1 68:1 100:1 129:1 134:1 169:-1 178:1 #-1 #3SSIA
1.1573180181341982 20:1 27:1 56:1 89:1 120:1 152:1 167:-1 170:1 #1 #2RN2A
-0.5090621706532179 16:1 51:1 77:1 101:1 120:1 139:1 157:1 161:-1 #-1 #1RN1A
2.1697665722942969 18:1 49:1 56:1 79:1 105:1 152:1 157:1 161:-1 #1 #2LZMA
-1.0461240300538004 12:1 33:1 75:1 79:1 123:1 141:1 157:1 178:-1 #-1 #1BNIA
3.6765490635282427 12:1 39:1 53:1 87:1 126:1 131:1 157:-1 178:1 #1 #2RN2A
-1.1620318761878508 5:1 49:1 68:1 90:1 126:1 137:1 157:1 161:-1 #-1 #2CI2I
-0.56032462001297856 6:1 29:1 64:1 94:1 120:1 155:1 157:1 161:-1 #-1 #1BPIA
-0.60586377369249156 16:1 40:1 70:1 89:1 122:1 152:1 157:-1 176:1 #-1 #2LZMA
0.32506239346577082 7:1 33:1 77:1 79:1 113:1 142:1 157:1 163:-1 #1 #2RN2A
-1.1144559015258946 14:1 46:1 58:1 85:1 126:1 131:1 157:1 160:-1 #-1 #1BNIA
-0.59444531872260797 14:1 51:1 61:1 89:1 123:1 135:1 175:1 176:-1 #-1 #1BNIA
-0.32074365517356895 14:1 51:1 61:1 89:1 123:1 135:1 161:1 176:-1 #-1 #1BNIA
-0.078156856262790023 1:1 48:1 66:1 79:1 115:1 149:1 160:1 168:-1 #-1 #2LZMA
-1.0244242900187963 13:1 40:1 58:1 83:1 117:1 165:-1 172:1 #-1 #2LZMA
-0.4962071636286462 7:1 44:1 59:1 79:1 129:1 139:1 162:1 168:-1 #-1 #1STNA
-0.84601412266709408 13:1 40:1 58:1 83:1 117:1 161:1 165:-1 #-1 #2LZMA
-0.72785737491531588 13:1 40:1 58:1 83:1 117:1 162:1 165:-1 #-1 #2LZMA
0.72936491969598127 9:1 32:1 74:1 98:1 116:1 150:1 161:1 167:-1 #1 #1AARA
-0.86162077802711323 17:1 27:1 69:1 98:1 124:1 148:1 162:-1 176:1 #-1 #1VQBA
-0.23985369671811657 11:1 48:1 59:1 96:1 107:1 162:-1 181:1 #-1 #4LYZA
-0.63099531678418941 5:1 42:1 68:1 98:1 111:1 146:1 157:1 181:-1 #-1 #1BPIA
-0.8111102481456548 19:1 27:1 64:1 90:1 124:1 152:1 165:1 178:-1 #-1 #3SSIA
-0.62980545610911509 12:1 51:1 71:1 82:1 127:1 142:1 157:1 175:-1 #-1 #1BNIA
-0.63449972044171177 19:1 27:1 58:1 89:1 115:1 143:1 157:1 176:-1 #-1 #1STNA
-0.39845663054374098 12:1 32:1 66:1 82:1 126:1 134:1 172:1 173:-1 #-1 #2LZMA
-0.41347312765578281 7:1 35:1 59:1 90:1 116:1 150:1 164:-1 170:1 #-1 #2LZMA
-0.74283865784487901 22:1 35:1 72:1 98:1 111:1 131:1 157:1 164:-1 #-1 #1RN1A
-0.63302247448177107 20:1 49:1 70:1 79:1 108:1 139:1 157:1 161:-1 #-1 #1BNIA
-0.39211701493269907 12:1 48:1 63:1 98:1 116:1 134:1 165:-1 168:1 #-1 #1VQBA
-0.59051478546372094 6:1 46:1 63:1 96:1 165:-1 178:1 #-1 #1BNIA
1.4621908407852531 13:1 38:1 69:1 89:1 122:1 153:1 161:1 173:-1 #1 #2LZMA
-0.57608832255403275 14:1 38:1 53:1 97:1 122:1 153:1 161:1 167:-1 #-1 #2LZMA
-0.74849962853978469 18:1 45:1 59:1 97:1 122:1 147:1 159:1 178:-1 #-1 #1VQBA
-0.50762918210633223 9:1 46:1 72:1 96:1 124:1 137:1 162:-1 178:1 #-1 #2LZMA
-0.90061005913179937 1:1 46:1 59:1 85:1 120:1 134:1 160:-1 170:1 #-1 #3MBPA
-0.85400264691322703 9:1 33:1 59:1 87:1 110:1 149:1 157:1 160:-1 #-1 #1BNIA
-0.49907761122294325 4:1 37:1 68:1 79:1 121:1 139:1 157:1 161:-1 #-1 #2CI2I
-1.3296885328496566 23:1 30:1 57:1 79:1 126:1 144:1 157:-1 168:1 #-1 #2LZMA
-0.59961322391976413 18:1 40:1 55:1 85:1 126:1 139:1 163:1 170:-1 #-1 #2LZMA
-2.4318002449911131 11:1 45:1 68:1 90:1 118:1 131:1 170:1 175:-1 #-1 #2LZMA
0.57658061754432444 1:1 27:1 74:1 90:1 105:1 141:1 169:1 170:-1 #1 #2LZMA
-0.73705895487348183 12:1 33:1 66:1 103:1 120:1 152:1 161:-1 176:1 #-1 #1VQBA
-0.81382789273410516 5:1 27:1 56:1 92:1 129:1 150:1 157:1 165:-1 #-1 #1BNIA
-0.38392444249146951 4:1 40:1 77:1 98:1 115:1 149:1 165:-1 178:1 #-1 #1BNIA
-1.3450228240614113 7:1 29:1 59:1 157:1 178:-1 #-1 #1LZ1A
-0.82328966276878113 20:1 37:1 71:1 79:1 121:1 131:1 161:-1 173:1 #-1 #1BNIA
-0.36553758521089347 3:1 51:1 74:1 90:1 111:1 144:1 159:1 160:-1 #-1 #1VQBA
-0.66563043716138504 18:1 30:1 58:1 81:1 157:1 172:-1 #-1 #1BPIA
1.5580063117756111 12:1 30:1 66:1 79:1 109:1 152:1 165:-1 178:1 #1 #2CI2I
1.0308292247073361 5:1 44:1 55:1 83:1 116:1 131:1 160:-1 176:1 #1 #2RN2A
-0.65195760863250674 11:1 38:1 58:1 95:1 108:1 152:1 157:1 170:-1 #-1 #2LZMA
-0.46513622093514589 7:1 46:1 61:1 98:1 117:1 135:1 157:1 178:-1 #-1 #2CI2I
1.2921453756529413 19:1 43:1 77:1 96:1 121:1 137:1 168:1 178:-1 #1 #2RN2A
-0.85793371865477264 19:1 43:1 77:1 96:1 121:1 137:1 157:1 178:-1 #-1 #2RN2A
-0.62500306783362325 9:1 48:1 64:1 100:1 111:1 150:1 157:1 172:-1 #-1 #2CI2I
-0.2465578166387099 19:1 45:1 68:1 103:1 109:1 153:1 162:1 181:-1 #-1 #1RN1A
-0.40479166380096682 5:1 27:1 69:1 87:1 126:1 142:1 165:-1 178:1 #-1 #2CI2I
-0.32115239119475308 25:1 44:1 61:1 96:1 126:1 148:1 157:1 160:-1 #-1 #2CI2I
1.7675242440103534 5:1 27:1 53:1 92:1 116:1 131:1 157:1 178:-1 #1 #2LZMA
-0.65440955047293037 12:1 29:1 69:1 84:1 126:1 155:1 157:1 176:-1 #-1 #1BPIA
-0.62569820133247656 1:1 31:1 63:1 84:1 118:1 147:1 157:1 168:-1 #-1 #2LZMA
-0.39570442033035724 12:1 30:1 63:1 87:1 111:1 148:1 157:-1 175:1 #-1 #2LZMA
-0.21801500289459791 17:1 44:1 72:1 89:1 129:1 137:1 157:1 160:-1 #-1 #1STNA
-0.41982318284312248 17:1 44:1 72:1 89:1 129:1 137:1 160:-1 163:1 #-1 #1STNA
2.0027539971861201 5:1 27:1 63:1 100:1 113:1 142:1 157:1 167:-1 #1 #2CI2I
-0.63154574468355396 22:1 27:1 56:1 90:1 121:1 150:1 162:1 181:-1 #-1 #1BNIA
0.82611528868759088 9:1 32:1 72:1 85:1 123:1 133:1 160:-1 164:1 #1 #2RN2A
-0.35186069259695124 14:1 46:1 56:1 97:1 124:1 134:1 163:-1 170:1 #-1 #4LYZA
-0.58549647746680444 9:1 38:1 69:1 89:1 120:1 135:1 157:1 160:-1 #-1 #2CI2I
-0.41068237258585766 25:1 32:1 77:1 79:1 115:1 131:1 157:1 170:-1 #-1 #1BPIA
2.074504788960315 13:1 40:1 58:1 83:1 117:1 165:-1 168:1 #1 #2LZMA
-0.76460445241519781 9:1 46:1 72:1 96:1 124:1 137:1 162:-1 169:1 #-1 #2LZMA
-0.14214615305275763 13:1 40:1 58:1 83:1 117:1 165:-1 172:1 #-1 #2LZMA
-0.54811255785224744 13:1 40:1 58:1 83:1 117:1 165:-1 178:1 #-1 #2LZMA
-0.59766391776971894 13:1 40:1 58:1 83:1 117:1 160:1 165:-1 #-1 #2LZMA
-0.41737179616886572 22:1 40:1 53:1 86:1 116:1 149:1 157:1 159:-1 #-1 #1LZ1A
0.52598664752566648 16:1 45:1 64:1 79:1 105:1 141:1 160:1 170:-1 #1 #2LZMA
-0.32176335526350131 4:1 30:1 74:1 100:1 112:1 136:1 157:1 162:-1 #-1 #1CSPA
-0.5174484710196996 7:1 38:1 53:1 87:1 129:1 131:1 175:1 181:-1 #-1 #1STNA
-0.96028146144721882 16:1 48:1 64:1 89:1 113:1 150:1 168:1 178:-1 #-1 #1VQBA
-0.11909632809835713 14:1 51:1 61:1 89:1 123:1 135:1 176:-1 178:1 #-1 #1BNIA
-0.25210512027025 3:1 31:1 71:1 86:1 108:1 138:1 168:-1 178:1 #-1 #1ROPA
-0.38907824662932011 7:1 30:1 74:1 97:1 111:1 137:1 162:1 181:-1 #-1 #1RN1A
-0.2592176975584034 18:1 33:1 64:1 103:1 113:1 155:1 157:-1 175:1 #-1 #1STNA
0.91377686159025528 12:1 44:1 66:1 89:1 116:1 141:1 157:-1 172:1 #1 #2LZMA
-0.27627866556614222 11:1 44:1 66:1 84:1 115:1 149:1 163:1 170:-1 #-1 #1BPIA
-0.17107029400499041 22:1 44:1 64:1 100:1 108:1 141:1 162:-1 168:1 #-1 #2CI2I
-0.35664103831529603 20:1 32:1 74:1 85:1 111:1 133:1 163:1 181:-1 #-1 #1BPIA
-0.26367927754194093 25:1 30:1 71:1 82:1 105:1 152:1 168:-1 169:1 #-1 #2LZMA
-0.1625212787656326 17:1 30:1 66:1 79:1 108:1 131:1 165:-1 178:1 #-1 #1LZ1A
-0.34349058073568023 7:1 40:1 57:1 94:1 126:1 142:1 162:1 181:-1 #-1 #1VQBA
-0.64089350845378679 5:1 27:1 63:1 100:1 113:1 142:1 163:1 167:-1 #-1 #2CI2I
-0.23014606482779751 14:1 45:1 64:1 91:1 116:1 147:1 161:1 174:-1 #-1 #2LZMA
-0.18756688202000968 9:1 40:1 65:1 84:1 121:1 143:1 169:1 178:-1 #-1 #2LZMA
-0.14681890275689094 1:1 38:1 59:1 86:1 121:1 139:1 172:1 173:-1 #-1 #2RN2A
-0.20220713272661789 4:1 48:1 56:1 79:1 126:1 148:1 157:-1 175:1 #-1 #2LZMA
-0.13065244098332407 14:1 44:1 65:1 90:1 117:1 131:1 157:1 161:-1 #-1 #2RN2A
-0.16900885478566491 7:1 34:1 64:1 98:1 115:1 149:1 157:1 168:-1 #-1 #2LZMA
-0.21477159712008903 7:1 29:1 59:1 157:1 178:-1 #-1 #1LZ1A
-0.1995925552960861 6:1 44:1 72:1 98:1 127:1 134:1 160:1 163:-1 #-1 #2LZMA
-0.11517090662390408 22:1 51:1 59:1 81:1 122:1 131:1 157:1 163:-1 #-1 #1BPIA
-0.17690151441912691 20:1 30:1 74:1 79:1 127:1 139:1 164:1 173:-1 #-1 #4LYZA
0.58967166873329568 19:1 43:1 77:1 96:1 121:1 137:1 165:1 178:-1 #1 #2RN2A
-0.18043737529747353 4:1 51:1 59:1 90:1 121:1 139:1 165:-1 168:1 #-1 #4LYZA
-0.12051777473354597 13:1 40:1 70:1 94:1 113:1 142:1 174:-1 175:1 #-1 #1TUPA
-0.3970350360645038 1:1 48:1 66:1 79:1 115:1 149:1 160:1 168:-1 #-1 #2LZMA
-0.22192162024534867 25:1 44:1 59:1 97:1 116:1 131:1 165:-1 178:1 #-1 #1LZ1A
-0.41054898939638507 5:1 27:1 69:1 90:1 111:1 153:1 157:-1 161:1 #-1 #1BNIA
-0.41398430269234976 9:1 51:1 53:1 85:1 115:1 143:1 157:1 160:-1 #-1 #1STNA
-0.25982633499911845 16:1 33:1 53:1 96:1 126:1 152:1 160:-1 175:1 #-1 #1RN1A
0.51201128096886106 9:1 46:1 72:1 96:1 124:1 137:1 162:-1 168:1 #1 #2LZMA
-0.3107262362483747 12:1 29:1 77:1 82:1 116:1 137:1 165:1 178:-1 #-1 #1VQBA
-0.31246981582741484 14:1 46:1 58:1 85:1 126:1 131:1 157:1 160:-1 #-1 #1BNIA
-0.18842578236401614 3:1 51:1 74:1 90:1 111:1 144:1 160:-1 170:1 #-1 #1VQBA
-0.090382965049124186 5:1 46:1 59:1 79:1 111:1 136:1 165:1 178:-1 #-1 #2LZMA
-0.11697602955455033 12:1 51:1 72:1 86:1 116:1 149:1 159:1 178:-1 #-1 #1VQBA
-0.045688747769395854 16:1 43:1 59:1 96:1 105:1 153:1 165:-1 178:1 #-1 #1LZ1A
-0.1243505515387 1:1 30:1 61:1 103:1 124:1 149:1 157:1 170:-1 #-1 #1BNIA
-0.085486200730296003 14:1 31:1 53:1 100:1 122:1 147:1 157:1 168:-1 #-1 #1STNA
-0.30114089343178674 5:1 29:1 57:1 92:1 105:1 138:1 157:1 169:-1 #-1 #3SSIA
-0.093583122729313711 13:1 48:1 58:1 91:1 111:1 135:1 161:1 173:-1 #-1 #2LZMA
-0.11189078605840991 11:1 37:1 61:1 100:1 109:1 136:1 157:1 161:-1 #-1 #1STNA
-0.065833431808930754 13:1 40:1 58:1 83:1 117:1 162:1 165:-1 #-1 #2LZMA
-0.094031519925159124 13:1 40:1 58:1 83:1 117:1 161:1 165:-1 #-1 #2LZMA
0.001100935254880836 7:1 48:1 53:1 84:1 124:1 144:1 157:1 163:-1 #1 #2LZMA
0.011357925981977957 19:1 38:1 56:1 100:1 122:1 148:1 157:-1 172:1 #1 #2LZMA
0.11931645533879687 13:1 40:1 58:1 83:1 117:1 165:-1 168:1 #1 #2LZMA
-0.077184135928835496 9:1 38:1 71:1 85:1 108:1 152:1 157:1 175:-1 #-1 #1RN1A
-0.073200227697643006 18:1 29:1 53:1 87:1 118:1 143:1 165:1 168:-1 #-1 #2LZMA
-0.33762299682086383 11:1 39:1 57:1 96:1 110:1 152:1 163:1 167:-1 #-1 #1IOBA
-0.093116502799310025 11:1 27:1 59:1 81:1 121:1 150:1 157:1 168:-1 #-1 #1BPIA
0.1665410261524482 13:1 29:1 68:1 100:1 129:1 134:1 161:1 169:-1 #1 #3SSIA
-0.1770288897107149 19:1 32:1 63:1 85:1 121:1 136:1 159:1 178:-1 #-1 #1VQBA
-0.078214930855282944 14:1 32:1 63:1 79:1 109:1 134:1 157:1 175:-1 #-1 #1BPIA
-0.0697229755708383 19:1 42:1 71:1 92:1 105:1 131:1 157:1 168:-1 #-1 #2LZMA
-0.15807726317545429 7:1 48:1 61:1 89:1 108:1 135:1 176:-1 178:1 #-1 #2LZMA
-0.074032975386126007 22:1 35:1 72:1 82:1 109:1 131:1 164:1 167:-1 #-1 #2LZMA
-0.058040702456502641 9:1 38:1 77:1 97:1 108:1 153:1 157:1 175:-1 #-1 #1BNIA
-0.025839594040666991 16:1 33:1 53:1 92:1 105:1 133:1 157:1 178:-1 #-1 #1LZ1A
-0.042244443073554738 3:1 44:1 53:1 96:1 118:1 144:1 157:1 167:-1 #-1 #1BPIA
-0.01596509467292298 13:1 40:1 58:1 83:1 117:1 160:1 165:-1 #-1 #2LZMA
-0.050397728427337057 13:1 40:1 58:1 83:1 117:1 162:1 165:-1 #-1 #2LZMA
-0.022404152546320846 1:1 43:1 53:1 85:1 127:1 152:1 168:-1 173:1 #-1 #1BNIA
-0.029037603244833399 9:1 35:1 74:1 94:1 126:1 137:1 168:-1 178:1 #-1 #2CI2I
0.0057972299595748511 19:1 37:1 65:1 95:1 110:1 144:1 168:1 172:-1 #1 #1ARRA
-0.0076151951866377243 14:1 27:1 53:1 97:1 109:1 142:1 157:1 167:-1 #-1 #2LZMA
-0.001754289007113774 9:1 46:1 72:1 96:1 124:1 137:1 157:1 162:-1 #-1 #2LZMA
-0.0014737534254413154 9:1 38:1 77:1 97:1 108:1 153:1 157:1 175:-1 #-1 #1BNIA
-0.0022262879290761966 14:1 44:1 65:1 90:1 117:1 131:1 157:1 161:-1 #-1 #2RN2A
-0.001848972062351479 19:1 27:1 64:1 90:1 124:1 152:1 168:1 178:-1 #-1 #3SSIA
-0.0019452717245883044 4:1 40:1 61:1 97:1 124:1 144:1 168:1 169:-1 #-1 #1ONCA
